svm_type c_svc
kernel_type sigmoid
gamma 0.5
coef0 0
nr_class 2
total_sv 16
rho 1.35466
label 1 2
probA 1.05326
probB 0.507279
nr_sv 8 8
SV
4 1:0.697 2:0.46 
4 1:0.774 2:0.376 
4 1:0.634 2:0.264 
4 1:0.608 2:0.318 
4 1:0.556 2:0.215 
4 1:0.403 2:0.237 
4 1:0.481 2:0.149 
4 1:0.437 2:0.211 
-4 1:0.666 2:0.091 
-4 1:0.243 2:0.267 
-4 1:0.343 2:0.099 
-4 1:0.639 2:0.161 
-4 1:0.657 2:0.198 
-4 1:0.36 2:0.37 
-4 1:0.593 2:0.042 
-4 1:0.719 2:0.103 
