conv_kernel
[[[-0.1361871903 -0.3252843037 -0.3909613613 -0.1359913732 -0.0006527871]
  [-0.2160337851 -0.1268906797 -0.3054152247 -0.2066066639 -0.1298474283]
  [-0.4862394891 -0.4956238519 -0.6438437225  0.0058527709 -0.1241579681]
  [-0.4852230104 -0.5070038955 -0.4717447737 -0.1794699759 -0.101652169 ]
  [-0.5883103972 -0.6398605636 -0.3944916329 -0.0861775829  0.0632447326]]

 [[ 0.0797678968 -0.2770703048  0.2601479861 -0.0205238931  0.1803074121]
  [ 0.1210509771 -0.0063779201 -0.1856881626  0.2658696114 -0.0774180906]
  [-0.1011246452 -0.1393759062  0.0994964139  0.0565718696  0.0301660922]
  [-0.0001258125  0.173987247  -0.1245573949 -0.0455309095 -0.1151390692]
  [-0.0240240188 -0.4128806162  0.0743252967  0.052004414   0.0451248509]]

 [[-0.0109702636 -0.0755819066  0.236086592   0.0262855607 -0.0526599724]
  [-0.0442736594 -0.0951141682  0.2162223691  0.1624483058 -0.092900779 ]
  [-0.0694401913 -0.0748705727 -0.0247733123 -0.140920095  -0.2847590894]
  [-0.0477975582 -0.1446732384 -0.2567867862 -0.3400971927 -0.0287776452]
  [-0.1807642649 -0.1164037215 -0.0473367959 -0.2841317842 -0.0624944689]]

 [[-0.022222919   0.115101535  -0.1166818284  0.0293999107  0.0230556343]
  [-0.1467933018 -0.1300387967  0.2331913184  0.0555589723 -0.0657350533]
  [-0.0914588092 -0.2604052836 -0.0541255159 -0.2722843081 -0.2578341932]
  [-0.2585377786 -0.0517001224 -0.015460549  -0.0939963192  0.0369204034]
  [-0.1355174011 -0.2772402873 -0.1903764706 -0.0281130932  0.0138184759]]

 [[-0.1990285349  0.0501211331 -0.3128205282 -0.1346675836  0.2891003786]
  [-0.4145213519  0.0219322922 -0.1033590416  0.0287203612  0.0973355942]
  [-0.3346898584 -0.161296964  -0.1210261011  0.02055504    0.0475804795]
  [-0.2703623353 -0.3739665365 -0.118526653  -0.2688918063 -0.2666065646]
  [-0.1114752102 -0.1717259658 -0.0119901714 -0.3207123691  0.00663838  ]]]


conv_bias
[ 0.1417316932 -1.108483547   0.6445589835 -0.3081440148  0.3060556026]


wih
[[-0.1184414254 -0.0803178689 -0.0250548356 -0.0658920082 -0.0243045376
   0.2504174603  0.0205201059  0.2922632566  0.148121874   0.0005381517
  -0.1035160656  0.4356321434  0.1004242552 -0.2618119477 -0.1452576619
   0.0631029694  0.0496660476  0.0945031135 -0.1066640273  0.3803398454
   0.1218116404 -0.1614577443 -0.1242348874 -0.0614629733  0.2326138657
  -0.0125855057  0.0515564189  0.0800095524  0.1698281784  0.0873680678
  -0.2442113166  0.0683980513  0.0582321373  0.0193766725 -0.090809036
   0.0809376553 -0.0856731028 -0.1760770383 -0.2387796806 -0.0096592619
  -0.0838583096 -0.2073054052  0.079538211  -0.0722036885  0.0639903441
   0.0878833227 -0.285087328   0.0850018478 -0.2941820766  0.1980438761
  -0.0815673809 -0.1033509697 -0.0585861138 -0.0177404363  0.1194483387
  -0.018317608  -0.1607652909  0.1550182551 -0.1453408109 -0.0067584842
  -0.1578522209 -0.1707406296  0.0808761661 -0.075767468   0.0033402993
   0.0664965685 -0.1062048307  0.172948788   0.0497758625 -0.0994015705
  -0.0870468025 -0.107242792   0.0132547809 -0.1087961046  0.1546430438
  -0.0430396654 -0.0954383356  0.0353717521  0.06110387   -0.171184363
   0.1933412478  0.0468917833 -0.0331391362 -0.0479378151 -0.1171103139
  -0.3506111349  0.0285706922 -0.2839982258 -0.0416316195 -0.084374307
   0.1157647896 -0.158877747  -0.1195050821  0.376388899   0.0360893126
   0.0877193096  0.0602532336 -0.2845017202 -0.1393323068  0.0437836246]
 [-0.10873824    0.0326110259 -0.0766061075 -0.1558692768  0.1827315694
  -0.1220134263  0.2470234782 -0.0138740019 -0.1505633818 -0.0478576304
  -0.0528322684 -0.2254964482  0.2107772333  0.2469059468  0.3144982737
  -0.0503599862 -0.0779902751 -0.009601834   0.1007741296 -0.1936746041
  -0.2876261734  0.0400117387 -0.1037978727 -0.0651848492 -0.094732703
  -0.2786733313  0.0757111413 -0.1185011916  0.0842723887  0.0509486042
  -0.115627577  -0.0126920773 -0.1467504894  0.2376894478  0.0130948921
   0.077722476  -0.1010981943 -0.1026236679 -0.0376482055  0.0185021868
   0.1295712751 -0.1452977011 -0.0266192719  0.0721527732  0.0308500228
   0.1762828531 -0.1336496526  0.097471325   0.1496890357 -0.026551393
   0.0668031128 -0.052584227  -0.25702351    0.0157486216  0.0270511331
  -0.0468122571 -0.0605948069  0.0361530141  0.0843798795  0.1037502655
  -0.0995353886  0.125596112   0.1024006372 -0.1232116594 -0.3315494762
  -0.0122738239 -0.0049628511  0.0401356016  0.1888886197 -0.014841204
  -0.1446752019  0.0709107984 -0.0924298419  0.0603962808 -0.1535778497
  -0.0954436237  0.0975420897 -0.0086110042  0.0257659585 -0.1857766061
   0.2442790914 -0.0109457889  0.0370943578 -0.2727977466  0.0886792281
   0.1894597    -0.0457295732  0.1841424963 -0.0546550067  0.1993185918
   0.1319604752  0.0389787408  0.0309064154  0.3425055564 -0.0519594938
   0.1612711175 -0.103766046  -0.0067061083 -0.2331658311 -0.0847349425]
 [-0.0860319984  0.0885518651  0.066637736   0.1053633929  0.2740769111
   0.1818112406  0.0295965922  0.0190565924 -0.0269801685  0.1929339059
   0.2477095207  0.0313598479 -0.0939785013 -0.0764745975  0.2292120288
  -0.0351126024 -0.1077400859  0.1135653497 -0.0313515272  0.0748964569
   0.0096990848 -0.385424089  -0.217142636   0.2490466737  0.0029868411
  -0.3235216425  0.0696581717  0.307728086   0.0447641873 -0.0570554381
  -0.0921475007 -0.0331515292  0.0926656843 -0.1846018325 -0.0420948924
  -0.0438616839  0.0502666428  0.0182449175  0.0289122059  0.1734844572
  -0.0806592004  0.3011336195  0.1681120899 -0.1257194047  0.1324696872
   0.1861907881  0.0360500796  0.0876523826 -0.0586397816 -0.0677957936
  -0.0172263103 -0.1711599848 -0.085656288  -0.106311559   0.0768943507
  -0.0727402057 -0.0757359628  0.0342269431 -0.2105933728 -0.0944391165
   0.1747387743 -0.1927077439 -0.0137965815  0.1099909402 -0.1495113752
  -0.0793609757 -0.0227752205  0.1986166376 -0.0610488512  0.0346655751
   0.1031064605  0.1962540568 -0.0911705589  0.1864963406 -0.0604307111
  -0.2847094987  0.1654438821  0.0898094551 -0.0880337015 -0.1102672316
   0.0587753021  0.140773023  -0.0621826758  0.0966864826 -0.0757995878
  -0.0325018981 -0.0020826684  0.0486597351  0.0714366389 -0.0903908755
  -0.2536975821 -0.0847401943  0.1503930399  0.1477325334  0.0083177166
  -0.3427579138  0.1051357217  0.2398563938  0.0557460509  0.1342763076]
 [ 0.0920548973 -0.043214836   0.3903304162  0.134098904  -0.0524919661
   0.0243158545  0.1749216526  0.0670221921  0.1557927768  0.1115017944
  -0.2611610647  0.2106591006  0.3335807078  0.0767362354  0.1253551182
   0.120069949   0.0203308436 -0.388788521   0.0686557567 -0.0430580559
  -0.1190391771  0.0361094965 -0.1276568747 -0.0355076016 -0.0879732953
  -0.184723754  -0.0026145364 -0.0729391428  0.0212721695 -0.0566441476
   0.019806638  -0.0507943759  0.0263252032 -0.2327227456 -0.072820635
  -0.1488713737  0.0284350071 -0.0220897888  0.2112467146 -0.1486393396
   0.1665985658 -0.0342192457 -0.0936378104  0.0285766093  0.0723992368
  -0.0652448488  0.2630384835 -0.0562812408  0.1078197749 -0.0660086918
  -0.0387028563 -0.0393475806  0.0002436725 -0.3922937754 -0.169759635
   0.4027545478 -0.1708782296  0.130998477  -0.0813417624 -0.2531032176
  -0.1624815402  0.1012678978 -0.107653343  -0.0515742706 -0.0188960272
   0.1376624701 -0.0187130465  0.2353857322 -0.0003922502  0.1023310258
  -0.1277663962 -0.0274926562  0.0325085194 -0.0781160552 -0.2737599622
   0.1268476867  0.1218017789 -0.0198175736  0.0087110663 -0.0815250877
  -0.123291893   0.0304329279 -0.0732405555  0.2337726789 -0.0438288611
   0.0278542501 -0.0168195769 -0.1426654909 -0.1317237242  0.0666166621
   0.0632960151 -0.1144438759 -0.1520683059  0.0422705396  0.1064932517
   0.0241367595  0.1068364529  0.0384748262  0.3925223944  0.061444974 ]
 [ 0.0773268027  0.0381915665 -0.0046792257  0.1660806704 -0.0189069322
   0.0505312086 -0.0727381198  0.1908662465  0.026021903   0.0034189302
   0.055192954  -0.0788243016 -0.1287418902 -0.0156783414  0.0138888636
   0.0100820931 -0.0339706377  0.053017015  -0.14533845    0.0666588596
   0.0685604232  0.0709739614  0.0441197357  0.2662481432 -0.1064825602
   0.0321930418 -0.2287354891 -0.1140634812  0.2039641276  0.1088503008
  -0.0642758004  0.0026677772  0.1625052727  0.3337141832  0.0062535295
   0.1265437707  0.0283853977 -0.0629432214 -0.0157402381 -0.1210145916
   0.0071875573 -0.0706136883 -0.1887417493 -0.1781195545 -0.1313240622
   0.0453986485 -0.4193822978  0.1631050849 -0.0477528249  0.0556584047
  -0.0454677468 -0.0270551983  0.2078127532  0.2492796956 -0.1780335647
  -0.217862464   0.0770944711 -0.0288148999  0.0141432679  0.0076695918
  -0.1492747877 -0.0445316683 -0.0773170818 -0.1872317326 -0.0805634622
  -0.1760777383  0.1146815064 -0.0207265631 -0.0463481439 -0.1184601826
  -0.023583855   0.2194055583  0.0389617548 -0.1034535259 -0.2659104066
   0.1044952478  0.1449487075 -0.1816293633  0.0152773674 -0.0878304036
  -0.1059834179 -0.0459954606  0.028473041   0.0759122701  0.0688092205
   0.1445922852  0.0063312712  0.0106790204 -0.1934711443  0.1161678302
  -0.2418135953 -0.0141679153 -0.0794785146  0.0669968597 -0.0183248936
   0.0276957611  0.0821181728 -0.0103685449 -0.0424006962  0.1239869283]
 [ 0.1131646198 -0.0558134542 -0.0768475645 -0.1192409137 -0.0203566989
   0.012405153  -0.0870303556  0.2508859422  0.0528668613  0.2747075826
  -0.0035381888  0.0717126911  0.1132956876 -0.2705227665 -0.1685022807
   0.0940013125 -0.125137396   0.156762864   0.0110531971  0.1443502218
  -0.0455615076  0.0570570798  0.0108104309 -0.1614922858  0.1306362126
  -0.0871829808 -0.1451205003 -0.337121282  -0.0237476437  0.0813898194
  -0.1294699047 -0.3675632554  0.0184970127 -0.0327391896  0.0509940447
  -0.0928818674 -0.3061497758  0.0916714738 -0.0900180373 -0.1749816434
  -0.1545189263  0.0514903423 -0.0891895548  0.014499284   0.0031264947
   0.2495475345  0.0217715143 -0.023912615   0.1747416268  0.1237021178
  -0.0248144889 -0.0656711396  0.0154862346 -0.1218050578  0.2654052122
   0.260598546  -0.1773054189 -0.1003107406 -0.0607345343  0.1226378702
  -0.115159392   0.1491253998  0.1952135221  0.0231238715 -0.1214052105
  -0.0926188946  0.0965738542  0.150838328  -0.1969680764  0.0113426002
   0.1419835645  0.044438611  -0.0036358012  0.0053885219  0.0354746921
  -0.4842030509 -0.1094402057 -0.1391710227  0.0709089413 -0.0973845595
   0.3018485557  0.365027435   0.0270500275  0.1502048662 -0.2024311265
  -0.0634481485  0.0342924822 -0.119460453  -0.1281045173 -0.0319790086
   0.1377432899 -0.056355854  -0.0923830775 -0.0165765737  0.1964488545
  -0.1100337853 -0.0903571534  0.2897862334  0.1840550233  0.0923081141]
 [ 0.071746233   0.0176052688  0.3054116088  0.0065517516  0.1307252274
   0.0673780636 -0.0601683071  0.2021300526 -0.0035178346  0.0659626293
  -0.0329116483 -0.1956551538 -0.1656469336 -0.1472092441 -0.0712530763
   0.096206122   0.0412345209  0.1734317288  0.0412922472  0.1295838564
  -0.1870910031 -0.2006363994  0.1456574791 -0.1934868029 -0.0473418706
  -0.163445861  -0.0706008354 -0.0792355686  0.0587473375 -0.1013261043
   0.0759667117  0.2395155283 -0.1851150573  0.1641956068  0.2175873485
  -0.0025336319  0.0881469945 -0.1497799681  0.3176901641 -0.1732791371
  -0.3163415032 -0.2588302162  0.0799976665 -0.0028041805 -0.119001029
  -0.0144990627  0.0253880246  0.0527503279  0.3586256399  0.0173093951
   0.1160778948  0.0091002348 -0.1212639358  0.1482159834  0.1692842836
   0.1604080414 -0.0021086024  0.1864870054 -0.0860613162 -0.0717906875
   0.1130185109 -0.1423088581  0.1656873352 -0.0050765734 -0.0059347662
   0.0308292485  0.2178330742  0.1652021511  0.0776510048  0.0489467312
   0.1373047572  0.0027905258 -0.0273712497 -0.0612681945  0.114491543
   0.0017223491 -0.0944593924 -0.1013330887 -0.1395737621 -0.1001180953
  -0.1491678457 -0.0565770506  0.0489030802 -0.1571775877  0.0392620206
  -0.0354273239  0.0460252477  0.4183299743 -0.2851508462  0.0659000004
   0.0115502454 -0.1309485999 -0.0158470629  0.1399558632 -0.0466611127
   0.3105736913  0.021804074   0.2535277211  0.0602695395 -0.0824078989]
 [-0.0578896016  0.0465840163 -0.0459933723 -0.1438186519  0.1896464296
  -0.1007445439  0.1467478986  0.1663915517 -0.2345737912  0.0610048914
   0.0784663271  0.2893933406  0.0382056793  0.1353923584 -0.1385336422
  -0.021269367   0.0128625214  0.0591865727 -0.0414550773  0.1411097138
  -0.1494985324 -0.0308829676 -0.035900179  -0.008348084  -0.0867316693
  -0.1826220467  0.0877288121 -0.1033965797  0.0187408228  0.0122892787
   0.0241687565 -0.4493756843  0.0379427551 -0.1322453958  0.0942887454
   0.0014069498 -0.3006505147  0.0831097569 -0.0251555218  0.0147654229
  -0.0915248056  0.0063608215 -0.0040561066  0.1810588006  0.1255336451
  -0.2024402407  0.0343120194 -0.4460522779 -0.1721392668 -0.11790005
   0.135511756   0.2002487524  0.0830786647 -0.1393412207  0.0007037855
   0.0570266279  0.045799333   0.1138406277 -0.2079831067 -0.0695080391
   0.1341824377 -0.1847819554  0.034908363   0.0158636322 -0.1102937603
   0.0591738474  0.1437093125 -0.0125401646  0.0847237414 -0.0836989681
  -0.087124676  -0.1817674051  0.057038784  -0.1933902677  0.021679998
   0.1342378065  0.1541931449  0.0296524466 -0.2215192689  0.086756125
   0.0000644663 -0.0273221287  0.0618046926  0.030424236  -0.1330032132
  -0.0005403583 -0.1311083948 -0.0277686347  0.2214144535  0.2394432091
   0.087555853  -0.0730656978  0.1420242756 -0.0664785879 -0.0206691589
  -0.0572564325 -0.20816324   -0.0656815358 -0.0623325957  0.0249726793]
 [-0.0513649073 -0.0733845917  0.1641832051 -0.3447815507 -0.02482289
   0.150564438   0.2071304575  0.0003098817 -0.0985543133 -0.0619109442
  -0.1372573097 -0.0592479137  0.313224272  -0.2786220298  0.169937827
  -0.0835717953  0.0581465899 -0.1784726558 -0.0222107043 -0.0168804587
  -0.0902298916 -0.1271713519  0.186776504   0.1323893411  0.1753691721
  -0.0732292782  0.0757764581 -0.1481980822 -0.1061922918 -0.1372069082
   0.2552639861  0.0312851173  0.3189176541 -0.3032152819  0.0496056747
  -0.0667014698  0.0321183461 -0.0073942637 -0.102250563   0.0090068447
  -0.0649207487  0.1633281028  0.0347792051 -0.0793188502 -0.1231194084
  -0.2374425026  0.1495192697 -0.077106073  -0.2130531519  0.0001241295
  -0.2196815219  0.0522960712 -0.0384891631  0.1823929523 -0.0194651013
   0.0745146351  0.2614619999 -0.1243086881 -0.0598493645  0.0202362935
  -0.1924529521 -0.0999244739 -0.1106021728 -0.0178683342  0.1209991279
   0.0899411512  0.100050801   0.0443686869  0.040232704  -0.0541169452
   0.2316319301  0.1507078156  0.2392521373  0.2490949522 -0.2465995092
   0.0080820275  0.0882551638 -0.0420449225  0.2146920678 -0.1605738499
   0.2387444497 -0.0570394798  0.1820357846 -0.0190809182  0.1304965872
  -0.0112692156 -0.0161783454 -0.2403795549 -0.0925960788  0.0643986372
  -0.1042183929 -0.0356101577  0.1393362537  0.1885513048 -0.0435735854
  -0.2644563939  0.1776914022 -0.0741392128  0.2127622299  0.06761027  ]
 [-0.0681395009  0.0277100082  0.2094472594  0.0766353594 -0.0719585075
  -0.0120678301 -0.0659060548 -0.165298382  -0.0398248902  0.0637850977
  -0.18359403    0.077261262   0.1786020428  0.0538218186  0.0642127844
  -0.0290711197 -0.0178090075 -0.1359745323  0.1751697013 -0.0165850167
  -0.0167650286 -0.2595635209  0.0098119819 -0.1988811857  0.1286532829
  -0.10044076   -0.0845745263  0.0800150927  0.0996794333 -0.0925296628
  -0.0246591114 -0.2683212375  0.1552420866  0.018283455   0.1088600064
  -0.1747571281 -0.0497234865  0.0459356746  0.1475108444 -0.3451780912
  -0.1025963947 -0.043399394  -0.0130787405 -0.1023369144  0.0708837933
  -0.0270357707  0.1294832751 -0.3148028681 -0.0773943756 -0.1341330426
   0.0636088239  0.0268253822 -0.0171281924  0.0421515743  0.2427989589
  -0.1586651606  0.0316497369 -0.0439558897  0.0291833968  0.023370428
   0.0616299475  0.0947983938  0.1876311914  0.1402538268  0.084936086
   0.1855718385  0.0572897551  0.0145556224  0.0786652616  0.0976371971
   0.3126868973  0.1033941999  0.0702175917  0.0686946363 -0.2909182826
  -0.3054283682  0.0902889275 -0.1186500312 -0.1234813856  0.1710933682
  -0.0703216665 -0.0928129252 -0.1569500294 -0.0076758661 -0.1657949909
   0.0455765696 -0.1749747705 -0.1948004319 -0.013590062  -0.1719759399
   0.1472713692  0.1569886104  0.1129057865  0.002712427  -0.1949297401
  -0.0401171171  0.0644830126 -0.1389852776  0.3639962691  0.0960367844]
 [-0.0361412486  0.1206655935  0.0319463965 -0.1292348101  0.142681397
  -0.1575978604  0.0875304391 -0.1802563923 -0.2028439731  0.0002598257
  -0.0671925772  0.0465292461 -0.2190908354 -0.0271695144  0.0837161263
   0.203764008   0.0216947797 -0.1617183687 -0.2237510212 -0.0324383251
  -0.0145051492  0.0445096725 -0.0922624569 -0.1501384538  0.0076285783
   0.2301103663  0.2106228202 -0.0847659509  0.0388566651  0.0368184061
   0.2350809242  0.0555860833  0.1588592512  0.1952678693 -0.1023160097
  -0.314884341   0.0159670584  0.2608242608  0.1634807031  0.2642442044
  -0.0876028973 -0.1526577309 -0.0252396947  0.00221787   -0.1890038297
   0.1398418903  0.0619522148  0.0819505483 -0.0372095595 -0.1570958067
  -0.1754584262 -0.0214836715 -0.0490965075 -0.1511189394  0.0303613977
   0.1245413736  0.0329212292 -0.0366500758  0.1868502017  0.1818163861
   0.173898792   0.1489604642  0.0134674131 -0.1524932053 -0.1395317885
  -0.2575919762 -0.0048395783  0.2617566721  0.0317924014 -0.1853491247
   0.0583605536 -0.186032596   0.2840628206 -0.0496471465 -0.1896439011
  -0.0489002535 -0.0392224097  0.1167811575 -0.1784635112 -0.1455066086
   0.0962794139 -0.1097999858 -0.2244263075 -0.0302040403  0.135432041
  -0.0704682939 -0.0267376415 -0.0194670341  0.1601868694  0.2051816782
  -0.1526358387  0.0891160479  0.2168926998  0.0742051229 -0.0960668239
  -0.1556385026 -0.2312101414  0.0098573799  0.1718973463  0.0860920885]
 [ 0.1609756843 -0.0625516252 -0.208271959  -0.0772112516  0.0248180177
  -0.0478031789 -0.0084443155 -0.1680017907  0.0333864709  0.1213151728
  -0.2056827983 -0.063770916  -0.0712174733  0.03991862    0.0872413692
  -0.1029863225 -0.118800863   0.1156117966  0.2101696066 -0.0405290707
   0.1826023499  0.177968199  -0.0417859486  0.1559876113 -0.0379232567
  -0.0807518479 -0.3484782258 -0.1566145262 -0.2141200189 -0.2638306985
   0.1931019353  0.1335728398  0.3990922201 -0.1437221121  0.072514329
  -0.0332212963 -0.0253645666  0.0637638986  0.0149353206 -0.1932393859
   0.2314595759 -0.0568598833  0.018269212   0.0745835832  0.0868953645
  -0.1350883369  0.1280890914 -0.0158148464 -0.0912930681  0.2215846438
  -0.0872096975 -0.1396354817 -0.0039642782 -0.1520184412  0.1633600625
   0.1001395065 -0.1012359622 -0.0012993407  0.2524832717 -0.3268409596
   0.219016177  -0.1246923996 -0.0834339611  0.3277197306 -0.016008445
   0.2280637522  0.1074941742  0.134701036  -0.1978372485  0.2229613065
   0.0433382024  0.1235589635 -0.0927511118  0.0861202094 -0.2579487137
   0.098240303   0.0992148579 -0.0225258533 -0.1450203916  0.0798310934
   0.1614672633  0.1141780368  0.017721699   0.1943393108 -0.2895454343
   0.0922586867 -0.2236738786  0.0007251405  0.0765995298  0.1798673371
  -0.0520979775  0.1071135762 -0.0422801106  0.0492095902 -0.0318273694
  -0.1343646189 -0.1400948967 -0.0066413613  0.0141882057  0.1073044544]
 [-0.1242619813  0.1101645177  0.0322466459  0.0463672416 -0.403426698
  -0.0364789329  0.1312044118  0.3107720737  0.1755898686  0.0394101174
   0.2639686697 -0.2527905421 -0.1383164505 -0.1148394264 -0.1159495754
  -0.0244591309 -0.0859796657 -0.0929614213 -0.0670952644 -0.1951911485
   0.3934222433  0.1589140363  0.1029082643 -0.1378626788 -0.1399885167
  -0.2074369623 -0.2457428794 -0.0955433339 -0.1007057443 -0.1650749201
  -0.0094905707  0.1563954427  0.026036048   0.179619108   0.0471477265
   0.0320682897  0.0841109224  0.2383425126 -0.0694125294  0.0246428677
   0.2511594101 -0.0664245249 -0.0740482051 -0.0589104302 -0.057862186
  -0.2043005953 -0.1117758322  0.1187054406  0.0240524179  0.0245850025
   0.0704543863  0.0045841445 -0.0218445574  0.1398999799  0.0593966775
   0.3007380002  0.2523969933 -0.2633200428 -0.0813365678  0.0467298302
   0.2718639998 -0.1809936925  0.1749995349 -0.0878899942 -0.071494581
  -0.2636950415 -0.0342628504 -0.2359414332  0.3643453094  0.2646695098
   0.0094255867 -0.1524136252 -0.0732448298  0.2098835425 -0.0531884737
   0.1860870815 -0.0812536557  0.1397653903 -0.1189937138 -0.1841203698
   0.0301437635  0.2766449733  0.0453371683 -0.1309311851 -0.2732792346
   0.2140879463  0.1711789298 -0.0235642962 -0.067173052   0.0396095567
   0.0229799619  0.0756835478  0.163715169   0.0993685461  0.0680699815
  -0.0788736827 -0.0780976187  0.1515114613 -0.0131304555 -0.1454743684]
 [ 0.1232336674 -0.0150535527 -0.0394704749 -0.0678068814 -0.0034637643
  -0.0814752754 -0.1282633289  0.0547228046  0.0755323343 -0.0940970205
  -0.1963464577 -0.0004708133 -0.016820832  -0.0658559501  0.0721028372
   0.1173038296 -0.1250517323 -0.3006050896 -0.1816521047  0.2102700438
   0.1438870581  0.1479961109  0.0945882226 -0.0534135104 -0.0419864518
  -0.0404401165  0.0951432686 -0.0480187019  0.1640673529 -0.1151489855
  -0.2765070571  0.0539178667  0.0877506739  0.0349450408  0.024854931
   0.0541104634  0.011050415  -0.0071380371 -0.0562339027  0.0697465776
   0.1152179918  0.0203036187  0.059367146  -0.07589051    0.0095816137
   0.1826541629  0.0332140354  0.0661312508  0.1062807981  0.0232797476
   0.1151066061  0.1230203407 -0.2684712519 -0.0074596343 -0.3351439144
  -0.1332841126 -0.2433146654  0.2568763275  0.0824260432 -0.0633430016
   0.1132698204 -0.0808250876  0.0443187528 -0.0331483852  0.0165131369
  -0.2090594679  0.0197000327 -0.1032243221 -0.0730398583 -0.1203646509
  -0.3642328823  0.0813836079  0.0293182966  0.2110127215  0.1681617019
   0.0052659255  0.0632615023 -0.0554737918 -0.2341205723 -0.207945796
   0.0542785055 -0.003656059   0.0043130369  0.0124141887 -0.1003531278
   0.0676526995 -0.128450866   0.0855289946  0.0195180288 -0.0861427802
   0.135718813  -0.2196429106  0.0737311875 -0.3379353002 -0.2901499992
  -0.1365410605 -0.1762646638  0.0122012052 -0.0515526587  0.0757525735]
 [ 0.145894913  -0.1840779399  0.280140897  -0.1860188011 -0.1022124839
  -0.0972410463 -0.2174116084 -0.0401826303 -0.1617592215  0.3089020444
  -0.0201928899  0.0945665526 -0.2475229414  0.0330861418  0.0789441166
  -0.0314508213 -0.1275883964  0.3057771004 -0.1681826381  0.0588939808
   0.0187285353  0.0352817401 -0.1379510417  0.053743728   0.1069069457
   0.0169420144 -0.0396452752  0.052842159   0.0306163425 -0.0188121352
  -0.1648311341 -0.0152636288  0.0443354005  0.0350867138  0.1776347718
  -0.0445536655 -0.0736604697 -0.1721357796 -0.10076362   -0.0389658859
  -0.1470170397 -0.0557496312 -0.0912191778 -0.1553373064 -0.1078880193
   0.1145605299 -0.1336574485  0.0612690878  0.0573896006 -0.1948087892
   0.0325439685 -0.2409195633 -0.0822929691 -0.0226504934  0.0011846714
  -0.2324785619  0.0053734124  0.0809072786 -0.0723505978  0.0473862895
   0.1503960566  0.0652671224  0.0233852313 -0.0524159552 -0.054460024
  -0.0484280773  0.2031116171 -0.0209176697 -0.0991214086 -0.1125027289
  -0.1576105425 -0.2125468637  0.2830766811 -0.1975986011  0.1601222622
  -0.0902118852 -0.0005133566  0.0509080538 -0.2060550292  0.2480254045
   0.0497501167 -0.0483051217 -0.0240971961  0.022433986  -0.0427258245
  -0.072758984  -0.1698636906  0.1394524114 -0.0669332057  0.1919090439
   0.111499721   0.3045230564 -0.233545827   0.0020123762 -0.1155660868
  -0.1121385609 -0.1544719482 -0.1286390567 -0.0493538014 -0.1093941779]
 [ 0.0734436683  0.0056582471 -0.028445379  -0.0776306035  0.1610334616
  -0.0864566036  0.1909882175  0.0075201198 -0.066847115   0.1964589113
  -0.0160738834 -0.0857774988  0.0666998548 -0.0970472979  0.1933155928
   0.2112393794  0.0447196334  0.141512792  -0.3286143172  0.068358738
  -0.0868734176  0.2428330745 -0.0915259055 -0.0706319639  0.0096788611
   0.1500444593 -0.0804723109 -0.1012727764 -0.1303902835  0.103335507
  -0.1506988186  0.1368806164  0.0894192189 -0.0231905728  0.0826002109
  -0.0004290509 -0.2294261984 -0.1393758062 -0.1020551437 -0.1469434795
  -0.1684614336  0.0768854153  0.0621933314 -0.11028602    0.3146553725
  -0.2018896137 -0.0541814035 -0.151378056  -0.1367699696  0.1455956335
   0.1443195185  0.1910975173 -0.1354463355 -0.1623941674 -0.0225102407
  -0.1769308481 -0.0058116606  0.1765517492 -0.1133721422  0.0046018667
  -0.1242325266  0.234263035   0.1922378409  0.0128880714 -0.0482563716
  -0.4200135437 -0.2067319054 -0.0142922098  0.0050562295 -0.115054013
  -0.0240804068 -0.112502857   0.2152952173 -0.1527104978 -0.1861313558
  -0.1084741072 -0.187757775  -0.3423171312  0.0244809518 -0.0618046463
   0.0917255191 -0.084622958   0.0932236025 -0.0503030463  0.0099002193
  -0.0034422809 -0.3439141489 -0.0063524071  0.1275291518  0.0394904606
   0.0810467179 -0.0692704945 -0.0793784936  0.023411487  -0.0478474654
   0.0663916003 -0.1265780857 -0.0231843968 -0.0951841455  0.0236325492]
 [-0.0604938768  0.0285394691  0.039427917   0.0978416066  0.0301348299
  -0.0442660817  0.1683300612 -0.0726050758 -0.0107587951  0.1114737827
   0.0541398183  0.1507967662  0.0114283564 -0.143595026  -0.0814293612
  -0.2458633648  0.1024562276 -0.0643455042  0.0196168444 -0.1458546479
   0.163431806   0.0384701034 -0.1929502537  0.0365997395 -0.0918368023
  -0.1706311816 -0.0384834719  0.278374297  -0.2136493833  0.1701623448
   0.1282266515 -0.1859742396  0.3551433025 -0.0118809181 -0.049836789
  -0.1926221299  0.2203642046 -0.0786695184 -0.0824684669 -0.1112797668
   0.1146480628  0.1539394972 -0.1064249164 -0.1954802286 -0.0922667426
   0.043279173   0.0744369716  0.0432602836  0.0671837611  0.0763747425
   0.1559140944 -0.2046568488  0.0434087631  0.1396081821  0.0209543055
   0.2165827284 -0.0456456975 -0.181174543   0.1617015786  0.1829654316
   0.1696539144 -0.127628799  -0.0388151171  0.0073540206 -0.0295828003
  -0.0069847382  0.0215583175 -0.0824129627  0.1567866024 -0.1382523
  -0.4383217097  0.4002257858  0.0255738387 -0.2340312224 -0.0825135563
  -0.2843463391  0.0066331492  0.0038883575 -0.1875811547 -0.1244196923
   0.0688954184 -0.2728106976  0.0549759757  0.018276686   0.1123533243
   0.2317588811  0.3823979119 -0.2786019558  0.0197942736 -0.0776880585
  -0.047917252  -0.2201403718  0.2028754003  0.1266772927  0.0960751327
   0.1077527834  0.1068156714  0.1983478924  0.2197886875  0.0715417684]
 [ 0.1856909367 -0.0673469099 -0.3855091344 -0.1207175396 -0.1840010976
   0.0552167357  0.0698037611  0.0596935982  0.1532441523 -0.0630749177
   0.2926348946 -0.0085225131  0.1644431117  0.272948467   0.0104699283
  -0.2367531612  0.0835823397 -0.1791909645  0.252908415   0.1008586389
  -0.1791386219  0.0200091183 -0.008920394  -0.0883980983 -0.0261334405
  -0.1752711338 -0.0079272917  0.0184977531 -0.0771874676  0.0011994409
   0.0130307627  0.1921083023  0.1078165742 -0.106718708  -0.0194435423
  -0.2406728291  0.1877154437 -0.0200559935  0.0341844314  0.082539467
   0.0230984304 -0.0550695105  0.1636025725 -0.1699510524  0.1470716391
   0.0455065612  0.1968858907  0.3084215206  0.2213771754 -0.0970055859
   0.0409932742 -0.0707985293  0.0420939281 -0.1298972729 -0.3375748202
   0.0300866487  0.149345254   0.2668368885 -0.0660475175  0.1203445028
   0.1628537766 -0.0326504862  0.1094543779 -0.0402124598  0.0097792593
   0.1022917332 -0.0357848982 -0.1251922305 -0.0652537607 -0.134493797
  -0.0786453235  0.0182477337 -0.1729347163 -0.1681389066  0.193206475
   0.0428971078 -0.1253275119 -0.0488296626  0.1654584459 -0.0633644653
   0.0376039823 -0.1352672483  0.0532654014 -0.1587176561  0.0121560279
   0.0483247564  0.1261682409 -0.0640992376  0.0581615386  0.1829350714
   0.051385277  -0.072276793  -0.2367331707 -0.1000745286  0.1989107186
  -0.136238127  -0.0903501571  0.088923939  -0.0450745153  0.0281277273]
 [-0.1039468403 -0.0403030549 -0.1926613409 -0.0264769099 -0.045861139
  -0.1269292425  0.13627808   -0.2027335629 -0.0723136635 -0.293507695
   0.1169769301  0.0224407498  0.0916977891 -0.0329060466  0.2475014854
  -0.023607963  -0.0991496809  0.0692019625  0.0826252056  0.0465573775
   0.0642032212 -0.0158406712 -0.0880006382  0.1273158544  0.0451426342
   0.0819154385  0.1224368195 -0.0844430341 -0.132971093  -0.0206441504
   0.2451306388 -0.1259134051 -0.0701397746 -0.065853778   0.1403769476
   0.0244591792  0.04911467   -0.0451019782  0.093176553  -0.1377473693
  -0.195519017   0.0958683096 -0.0703678193 -0.1319762037 -0.0787604932
  -0.0305351926 -0.0047451118 -0.0570558112 -0.070197856  -0.1698933758
   0.1639346617  0.0148138969  0.0588343895  0.1072742772 -0.1195140148
   0.0838773344 -0.0414331775 -0.2352908579 -0.0331643067  0.0342206868
   0.3015344753  0.0584557013  0.1485391604  0.1111470597 -0.1643388178
   0.2571222895 -0.0944829721  0.26983834   -0.1970303653  0.0333009373
  -0.0662880947 -0.0637629076 -0.1343892159 -0.2485057186 -0.2757989989
  -0.2016055829  0.3296553004 -0.2305030181  0.0613677736  0.0178528999
   0.0475137957  0.0054234686 -0.2312621949 -0.0842697885  0.0746997765
  -0.0880725921  0.1894026607 -0.1672239391  0.0948299496  0.0900795696
   0.1978368096  0.0542452542  0.1029742813 -0.0254098155  0.0794131122
  -0.1036297393 -0.2863024097 -0.1669092361 -0.095219863   0.0738522195]
 [ 0.0439959522 -0.1298929393 -0.1762645785 -0.0461117105 -0.1115113406
  -0.0404370307 -0.0010495657 -0.2161859281 -0.0704116305  0.012256426
  -0.037006631  -0.2950703817 -0.0201555269  0.0793540601  0.0298985573
   0.0682411466  0.0349541631  0.0115058119 -0.0443492306  0.0009541512
  -0.0808882676  0.0482977721 -0.0549725278 -0.1166506422 -0.025332499
   0.2881473664  0.0726385462  0.0519012856 -0.1442025413 -0.1239061804
   0.0224358663 -0.1875030087  0.1351614006 -0.0328865082 -0.2222948179
   0.0022140096  0.1059807186  0.0558125675  0.2025592543 -0.1603591991
  -0.0090530871  0.0657208141  0.0244853839  0.011910185   0.0451079552
  -0.1691458238 -0.0563049134  0.1301934722  0.1206514666  0.0081061772
   0.1307765074  0.0555660159 -0.0409761995  0.0112556807  0.1230541296
   0.3130243116  0.0327171005 -0.0374204084  0.1395718517 -0.205800664
   0.1217204724  0.0038608205 -0.2663361964  0.0835748633 -0.1597720079
  -0.0928971888 -0.0321424973 -0.2828308124  0.1732948048  0.1184312773
   0.1729594652  0.043915593   0.0144911425  0.1505176508  0.0621426126
  -0.2795656976  0.033028183  -0.1332058    -0.2117520144 -0.1091848143
   0.1759503519 -0.0543449929 -0.0649716288  0.344592788   0.0402323353
  -0.1406392303 -0.1213283542  0.0749704494 -0.0293208452 -0.0548625312
   0.1046490414  0.0457928657 -0.0431878845  0.0839326044  0.1817800897
   0.2567475382  0.0879443721 -0.028681556   0.0896036863 -0.1073249186]
 [ 0.1249169912  0.2857098793  0.1128763325 -0.0185607122 -0.2408174511
  -0.105821184  -0.0306041293  0.2145706045  0.0724360402  0.1286722503
  -0.0621054033 -0.1443159892 -0.2295001763  0.085018322  -0.0928643261
  -0.1142880441  0.0598652714  0.0905007972 -0.0870509395  0.0748490554
   0.0252134297  0.0250532717  0.0482788876 -0.0547691506 -0.1233631226
  -0.2031411257 -0.0313446508 -0.190885348   0.0525860761 -0.0742997767
  -0.0687927353  0.0688196041 -0.0178807382 -0.2518223129 -0.1970319718
  -0.0425380173  0.217415034   0.3891959715  0.1800506648  0.0816833329
  -0.0901360425 -0.0746419665  0.0263792732  0.0023655258 -0.027056216
  -0.1094991449  0.0397795219 -0.0034212249 -0.0121420478  0.1533985453
   0.0821277755 -0.1512796359 -0.1456751505  0.0445681399 -0.0886082767
  -0.1266397389  0.0028857584  0.0381964893  0.2164300041  0.0005360838
  -0.1887652694 -0.1264908    -0.0652069869  0.1802985251  0.0205233118
  -0.1076964511  0.0289261093 -0.0499487681  0.1666369403  0.0029991822
   0.1231023716 -0.0665440888 -0.0364282302  0.1866737291  0.1006269632
  -0.0002673099  0.1168406135  0.0060909362  0.0413043341  0.0297601366
  -0.0830814706  0.1265290582 -0.1431305015  0.0694497681 -0.2523686396
   0.143369904  -0.1738729013 -0.1446249366 -0.2875843254  0.1171290816
   0.2216134061  0.0198258594 -0.010421263   0.0121350124 -0.0998014215
   0.3245424788  0.3959520628 -0.0400229937  0.2456944077 -0.1265184348]
 [-0.355083328   0.0990611738  0.1137240276  0.3240964726  0.0771896606
  -0.092097944   0.0802458122 -0.1524233484 -0.0619884234  0.1010682031
   0.0305645635 -0.2551071904 -0.087067937  -0.0118766132  0.0790451951
   0.1534818286  0.3281232454 -0.0418297359 -0.1341479648  0.1842248445
  -0.0273777622  0.1470144489  0.3574631125 -0.0866217116 -0.0889740989
   0.1978573226  0.1218233435  0.0817098158  0.0076608973  0.0707083572
   0.0300501483 -0.1357007743  0.0382946898  0.1498640991  0.1923644098
   0.1850737909  0.2680009187 -0.0335716697  0.2352135095 -0.1275600855
  -0.2456014079 -0.0718429083 -0.037260175   0.0370262284 -0.0522997838
  -0.0620942401 -0.0212334316 -0.0717133219 -0.1190692653 -0.0028680838
   0.1559656584  0.0711022136  0.2057019368  0.2569758995  0.0451293423
  -0.1503663771  0.1048680471  0.0000862976 -0.0882607373 -0.0371577659
   0.2516117094 -0.1956406654  0.1226750779 -0.0874130581  0.0098177582
   0.0332630154  0.0509203847  0.0673867074  0.0725657037  0.0154872951
  -0.1333991118  0.1336967929  0.2478586463 -0.1793957363 -0.0591320472
  -0.0248487499 -0.2344738637  0.1530644308 -0.0524691886 -0.0700538601
  -0.0354507808 -0.0397599335 -0.2249340255 -0.0094544447  0.1807211303
  -0.0247174771 -0.1015419593  0.1756517151  0.0583376401  0.0217458914
   0.0819510283  0.0450029364  0.1734781848 -0.2603672489  0.1814219459
  -0.0268786529  0.0287311728 -0.0160759838 -0.1139259699  0.087456976 ]
 [ 0.1290598001 -0.1276322912 -0.1774177884  0.0800493136  0.0047233608
   0.2164348114 -0.0462952706  0.0644447107 -0.0600358677  0.0382927005
   0.1098471049 -0.2271706172 -0.15963354   -0.1976653854  0.0962918511
  -0.0103453131 -0.1994987792 -0.3245205631 -0.1270390117  0.0925335034
  -0.037811902  -0.121274942  -0.0930237477 -0.1011769279 -0.0696084425
  -0.046878554  -0.0340153834  0.0403504102  0.123371892  -0.255601954
   0.1145399326  0.0006729322 -0.3631728892  0.2036911993 -0.186699314
   0.1377676392 -0.37047448   -0.0667358392 -0.2297150839 -0.1286412866
  -0.0160627214  0.1728877782 -0.0442357577  0.1496492798  0.0980809003
  -0.0259023572 -0.1631637859  0.1721659159  0.0621386895 -0.0582768151
   0.1594941686 -0.1668713514 -0.0142172633 -0.0934770629 -0.0651208179
  -0.1526595591 -0.0950292018  0.0916633613  0.1579570363  0.0153448686
  -0.2119803315 -0.0487548701 -0.1552188971  0.0540810749  0.3476231682
   0.0642666389  0.1144858959  0.0895770939 -0.1568789445 -0.0647653179
   0.1166469526  0.1710723554  0.0570124336 -0.0209581131 -0.1200306132
  -0.2128501894  0.410816096  -0.2506907417  0.1451349549  0.1587610284
  -0.0323837056  0.1528898508 -0.3617794759  0.0721689402 -0.1854860265
   0.1657439715  0.0585114402  0.166275439   0.0084348344  0.128610357
   0.0608134948  0.0415272826 -0.1747992217 -0.1363872353 -0.1320411493
   0.1477853741 -0.1147267625 -0.2419654118 -0.1036972365  0.0375762237]
 [ 0.0062055568 -0.332445051  -0.1407791246 -0.1569726641  0.1043288332
  -0.12093978    0.1655100257  0.1674342909  0.0693168323 -0.0196673781
  -0.1149827629 -0.0006105036  0.108054505  -0.0672731392  0.0288310906
  -0.1834046304  0.0738573076 -0.1132949973  0.0875137567 -0.0166544733
   0.0585988842  0.2494928574  0.0431419991  0.0239194201  0.0741567298
   0.0800166448 -0.0786731116  0.0658400238  0.1498298596 -0.1512369431
  -0.0837490939  0.0452102455  0.0816368916 -0.0078025273 -0.2032212115
  -0.0842520684  0.1948201404  0.0106411957  0.135907124   0.0507151244
   0.0292432812  0.0128393151 -0.1400599112 -0.2353021512 -0.1361348369
   0.0026064453 -0.1363260645 -0.1577224215 -0.1521043453 -0.0697360972
   0.0888839366  0.0312185783 -0.0469751934  0.059694468  -0.2701887399
   0.0587793472 -0.2161715367  0.1082363799 -0.1381006992  0.0413865911
  -0.1535858246  0.062728086   0.0112959761 -0.0245546663  0.0607693604
   0.0234164701 -0.1700191691 -0.1410018015 -0.1096543241 -0.2318067738
  -0.0363999301  0.0384564353  0.005551049  -0.1042107967 -0.2206101905
  -0.004862799   0.2779599974  0.0517462125 -0.2487548079 -0.0250577231
   0.087749051   0.0956377017  0.1252815644 -0.0705053305  0.219881587
  -0.2621066276  0.1053466367 -0.0385109417 -0.12714804   -0.0127606253
  -0.2994055547  0.104234052   0.3421529199  0.0136264893  0.3966214151
   0.0959944506 -0.0484016289  0.0323303803 -0.0437857758  0.1594247213]
 [-0.2061680319  0.0826897946  0.0531612863 -0.0105412948 -0.0853928207
   0.2623527686  0.0766163198  0.1005696733 -0.0323057508 -0.2296384806
   0.0232689889 -0.0116346874 -0.1509489269  0.0178914114  0.1082047295
   0.0300219974 -0.0390445191 -0.0726056603  0.2122330561 -0.0212063259
   0.0481815231 -0.1662091346  0.1535955132 -0.014812229   0.1255845345
  -0.0194297111  0.0478071892 -0.1014509045  0.2093431833 -0.2146519825
   0.1493715369  0.0485119314 -0.0218676587 -0.0752759145 -0.0488845946
  -0.2122705356  0.1225295311 -0.3153272108 -0.139607905   0.1205558237
  -0.0769112462 -0.0122914724 -0.018550802  -0.1710345864  0.0912411918
  -0.0202851361 -0.0743685872 -0.0533629666 -0.0141464445 -0.0387810195
   0.1472312099  0.0016602719 -0.1014166525 -0.0131171303 -0.1311618439
   0.0522905321 -0.054651847   0.0720141688 -0.0440380379 -0.0238777435
  -0.0869025269 -0.0351704681  0.1035707222  0.0022612377 -0.012800607
  -0.0487827267 -0.0697722254  0.0572925093  0.1381981871 -0.0064597459
   0.2135844607 -0.2611250882 -0.0766396536  0.1867117837 -0.0792893836
   0.1270560351  0.0271780238  0.027977305  -0.3208827198 -0.2488962998
   0.0013358287 -0.0624125978  0.1172218153  0.1236700969 -0.0363710522
  -0.133382096   0.1127177051  0.0134147717 -0.007684072  -0.0186415508
  -0.0857627832 -0.0147294748  0.0133243195 -0.0242102176 -0.0773454636
  -0.1643797255 -0.0238661713 -0.0457937042  0.1029008233 -0.0743539058]
 [-0.0881207716 -0.1045256775  0.0638273602  0.0784074125  0.1541647412
   0.1713435538  0.0527717645 -0.2376845369 -0.1253506077 -0.0476908034
   0.2222900943  0.0310335154 -0.1462072573  0.0613938684 -0.2818158837
   0.1362826876 -0.0506415044 -0.0291253917  0.0119231914  0.0731215677
   0.0791745772 -0.1171272615 -0.2352372617  0.0279327249  0.1545022263
  -0.0093263198 -0.0562433872 -0.01870092   -0.0861591193 -0.2441028109
   0.0520718613 -0.0886325203 -0.1720270214  0.2519853314 -0.1504556416
  -0.0172748297 -0.0247215904 -0.0316272477 -0.1778943032 -0.1440988001
  -0.0770469951 -0.0798893693  0.0008351474  0.062230255  -0.1962476592
   0.0810811964 -0.0549291266  0.2290238888 -0.2244749566  0.190902358
   0.1487799769 -0.0829827769  0.1477707743  0.0771191179 -0.2920957765
  -0.0620847632  0.0812741054  0.0804378725 -0.1264855055 -0.0118413627
   0.0516825438 -0.0343435616 -0.1765901499  0.0774835483  0.1554138401
  -0.2172832443 -0.2218186397 -0.2192709308  0.1321434039 -0.0633350014
   0.1263102125  0.4471974539 -0.0350771472  0.0164256453 -0.0018300267
   0.1122954467  0.021626048   0.0285689185  0.0658938634 -0.0832042519
   0.0035931223  0.0952527034 -0.0235645777  0.1032300897  0.207623337
   0.0114886223  0.0359490852  0.1321209707 -0.041889451  -0.0257730699
  -0.1901810778  0.0878532683 -0.1101877626 -0.1201491441  0.0284886155
  -0.1914685932 -0.0486540395 -0.0829908103 -0.2498393002 -0.1094648084]
 [ 0.2242618708  0.1949595191  0.180921925   0.0782832973  0.0842217723
  -0.1529205591  0.032112883  -0.1024952592 -0.0858993838  0.1050847477
  -0.0831329364 -0.0255836185  0.0268955331 -0.3590819275  0.1481813836
  -0.166678122  -0.2044793793 -0.0307668097  0.2055835552  0.0082524261
   0.2083106167  0.2644948191  0.0057672312 -0.0596941527  0.0842114298
   0.0288748002 -0.0323466023 -0.0643451896  0.062500763  -0.2734744181
  -0.330853345   0.2019074768  0.0650841196 -0.1458372058 -0.1631549032
   0.2150848193  0.0903191985 -0.119001913   0.1575745105 -0.0481263752
   0.294538524   0.0013700655 -0.0814230746 -0.2280353244  0.126305883
  -0.173528282   0.1112713036 -0.1156190482  0.0194991313  0.0804789067
   0.0137866246 -0.1415912856  0.1526139186 -0.0653043085  0.0903503368
   0.0921210534  0.1618962362  0.151650788   0.0154575322 -0.0195144669
  -0.0044068437 -0.2474361958  0.2291558978 -0.0005289814 -0.1545941232
  -0.0097507196 -0.2980925501  0.0035705851  0.0329135955  0.0197891879
  -0.0614323207 -0.1434296791  0.3118128303 -0.0281121428 -0.0411209177
  -0.0321784     0.1998675329  0.2179137711 -0.0881241882  0.0143976396
  -0.0333089614  0.0639499891  0.0731114567 -0.2575674007  0.1310895343
  -0.0982259022 -0.1135251783  0.1227095382 -0.0337416618  0.0525398993
  -0.0516207242  0.0771730008  0.011758174   0.0045951524 -0.0860678682
   0.197045417  -0.2495359576 -0.1149612075  0.1409069669 -0.0523785605]
 [-0.0394930369 -0.1308889745  0.0159347467  0.2121438473  0.1733712603
   0.073488911  -0.0184052122 -0.0627965611  0.082105905   0.0343676243
  -0.0557462855  0.0686756758 -0.2222974806 -0.1369648328  0.0537028535
   0.0697947289 -0.1139639097  0.1574011447  0.171161384   0.0303549758
   0.0486929668 -0.0611725791 -0.1901659511 -0.0022289916  0.128463118
   0.049771963  -0.0595408241  0.0331635499  0.2055959846  0.073893627
   0.1057271419 -0.1563349144 -0.0126562403 -0.0944483879 -0.2214061861
   0.0475045533 -0.1902511467 -0.0110556539 -0.0985112683  0.0718816712
  -0.1645857272  0.039637425   0.0888515464 -0.0121902372 -0.0908005007
  -0.0685777923  0.1082662457  0.075564927  -0.0015332129  0.0793608755
  -0.0270389311  0.0935034597  0.1434308708  0.1801816161 -0.166731994
   0.1110419675 -0.2191062509 -0.327216403   0.0246994583  0.0548462602
   0.0018407711  0.1894811982  0.117732981  -0.0037851313  0.1809726939
   0.0164072312 -0.0163065698  0.0877845535  0.0818188867  0.1745421629
   0.0899273043 -0.1121350443 -0.1944655767  0.0424573789 -0.0670988736
   0.1487844223 -0.3160832966  0.0580990072  0.0515920773 -0.3363550638
  -0.0588732247  0.4506364285  0.1505019152  0.0595146851 -0.2397781328
   0.1556206194 -0.141194469  -0.1053773666 -0.0006949188 -0.1083656628
   0.0518932127  0.1131564371  0.0128684347 -0.1510757599 -0.3698954484
  -0.032398733   0.0008179855 -0.111750807  -0.087720856  -0.1250896528]
 [-0.2322125201 -0.2400715699 -0.0519924028 -0.0227460078 -0.2933974805
   0.0857454564 -0.0850702074  0.0245325048 -0.1514836455  0.2192826681
   0.0034242395 -0.1006129703 -0.1333750079 -0.1784460428 -0.0330237494
   0.3826004053  0.0023526062 -0.1290636714  0.1847045676  0.1446836738
  -0.0897139791 -0.1697618515 -0.0084821826  0.0585953656  0.0034211435
  -0.0385884073 -0.1424399914 -0.0665326264 -0.0855417567 -0.1536518007
   0.0159279606  0.0615617894  0.0053703679 -0.1301826362 -0.2375087572
  -0.182871846   0.0572987725 -0.2098103768  0.2330155717 -0.1108710286
  -0.0369898949 -0.0103961102 -0.0598149896 -0.2913967209 -0.0807324292
  -0.01372975   -0.1939829194 -0.2954808852  0.1413913024  0.2702346582
   0.0647802084 -0.1973412068 -0.0649339095  0.1199173316 -0.0421814811
  -0.037901109   0.063036762  -0.1755102176  0.0409394213 -0.1020819117
   0.0872685787  0.0223476063  0.0534294371 -0.0272915832  0.0146063668
   0.1184019655  0.0593670552 -0.1667589858 -0.1328170545 -0.1137224621
  -0.0666286024  0.1030137991 -0.2920534655 -0.1438593065  0.029559582
  -0.0405449159 -0.1166134291 -0.0021539377  0.0163847023 -0.2297893873
   0.1061797517 -0.1352819559 -0.0772319409 -0.0147959389  0.1137737377
  -0.1930928991  0.1055625953  0.1472079425  0.1541770869 -0.1098500619
  -0.1736304179 -0.0077543919  0.0373401712 -0.0932699767  0.2811854517
   0.0914080857  0.1804122382 -0.0098113522  0.1687172781  0.0579893332]
 [ 0.0121068553  0.1964229879 -0.3983602092 -0.1657829835 -0.271702032
  -0.1014350894 -0.0828847504 -0.1108735332  0.1381740319  0.1017359637
   0.0934169928  0.008616306   0.113616729  -0.3403561275  0.0302824377
   0.0311378952  0.0821371078  0.1665548897  0.077746796   0.0765379562
  -0.0786623546  0.0455886747 -0.2687554396 -0.1447175815 -0.024905065
  -0.1730860576  0.0300306421 -0.0048969804  0.0857024349  0.172410761
  -0.0980389059  0.1277029228 -0.2471980346  0.0995346122 -0.0353468459
   0.099378588  -0.1032666335  0.0900868903  0.0497612635 -0.2617458228
  -0.1693634947  0.0744418725 -0.1692469454  0.2565331577  0.1416173862
   0.0639315164  0.0171275361  0.0137913037  0.0930083056 -0.1249349104
   0.0477846547  0.0443521697  0.1375795287  0.1859909945  0.015888688
  -0.2199799814 -0.0294791215  0.0461363404 -0.0593685892 -0.0692936217
   0.2681673591 -0.0764222528  0.1607859294 -0.0819498634 -0.065728668
   0.1114246733  0.3902988471 -0.1213664742 -0.0655295965  0.1579124258
   0.2141075618 -0.0585473898 -0.038434201  -0.0408352587  0.1227316409
  -0.0806453857  0.0399972427 -0.0105092491 -0.0838515195 -0.2951861001
  -0.1193679961  0.1464616911  0.0240971629 -0.0288832483 -0.0953338335
  -0.023498974   0.0232908451  0.0062345583  0.166195027   0.2786882599
   0.1398525127  0.1051729842 -0.0667967924  0.065174608  -0.2844564321
  -0.1576099334  0.2631055886 -0.1905125498  0.0717276938 -0.2010245358]
 [ 0.1157610416 -0.0866738224 -0.0638444583 -0.0072915769  0.1444711205
   0.3234551132  0.0995630537  0.2125257333 -0.174354122  -0.1220410715
  -0.062007888  -0.0861402304 -0.1417290751 -0.1843162022  0.2145788032
  -0.169060409  -0.0578612825 -0.4024596978 -0.0435919694 -0.2663857252
  -0.0736401515 -0.1708001233  0.2547492861  0.0272806536  0.1977843994
   0.1026156799 -0.2377808544  0.2411819408 -0.0159161172  0.1773359175
   0.3312367033 -0.2851208177 -0.0308566988 -0.1370521731 -0.0553579861
  -0.0834895645 -0.0340213191  0.1957002411  0.0059759326 -0.0107252591
  -0.0157157553  0.0967800724  0.0091435002  0.0419614532  0.1179979378
   0.0952057935  0.0342832576 -0.0313950804 -0.0953499341 -0.4222190789
   0.3089972982  0.2401239501 -0.24501116    0.1774580085 -0.1198522035
   0.081447266   0.0394665963 -0.0563275595  0.0005141041  0.0730555797
   0.0403806368  0.0737077931  0.0776525948  0.3000932001  0.0412296579
  -0.1220936167 -0.2972089205 -0.0845703402  0.1177650059  0.1419659862
  -0.0343826415 -0.00146085    0.0188217106 -0.0718736595  0.0198325838
   0.2867011976 -0.1404512056 -0.1219363967  0.0044527046 -0.0681065253
   0.2541939139 -0.252491988  -0.0292490829  0.0268275056  0.1397854597
  -0.2066643043  0.0353270252  0.0808073536 -0.0223199877 -0.1225094421
   0.123992752   0.1703315664 -0.1601769723  0.0226146085  0.0100442471
  -0.1660722607 -0.1120187613  0.2195971775 -0.0176184729 -0.0740207945]
 [ 0.0619609999 -0.3951474643  0.1688150915  0.0025726086 -0.3740646208
   0.0264542816  0.1139490811  0.012724954   0.04653845   -0.0887580598
   0.2948792307 -0.0657186885  0.0369275674 -0.0693087307  0.046825619
   0.086552803  -0.1957362102 -0.0748468351  0.0384337336  0.0402992997
   0.1026274156 -0.1957782621 -0.1738688107  0.1068790038 -0.0780947869
  -0.1737807312 -0.0917475371 -0.2075461429 -0.0193175662 -0.1280211939
  -0.0483741626  0.020104296  -0.1026079351 -0.187662946  -0.035781496
   0.0077269191  0.1046131908 -0.3576144366  0.0017595988  0.0243739973
   0.1348046036 -0.0403074961  0.0452707166 -0.0586963911  0.0452766479
   0.0538184373  0.0613615203  0.0686303788 -0.151839904   0.2686013317
   0.1186221554  0.0457741661 -0.1094723087 -0.0609513186  0.0644245514
  -0.0893716871  0.2167041838 -0.0884584395 -0.0596015837  0.0214132315
  -0.0917335946 -0.2973148106  0.1060967619  0.2525531265  0.2245028384
  -0.0770621165 -0.2106157212  0.2106204311  0.1360207027 -0.0075802795
  -0.0581927288 -0.0566801128  0.02754838   -0.1525848585 -0.189454956
  -0.290960454   0.0385604114 -0.0186985131  0.2481541919  0.1414595963
  -0.2501015186  0.0401809505 -0.2117904482 -0.1777304384 -0.1319116571
   0.1337703738 -0.1452478114 -0.1190696534 -0.0694509048  0.0604828482
   0.0277068572 -0.0402915034 -0.1385140691 -0.087469148  -0.271655314
   0.1027151593  0.1515531899 -0.1052332421 -0.1967660336  0.0139564275]
 [ 0.2006540265 -0.3149496502  0.0016886804  0.0764919794 -0.125232233
  -0.0986932983  0.0274270436  0.1081582149  0.0640456549 -0.1011038009
   0.0329278293 -0.0022882247 -0.0714592557 -0.0440368372  0.0652762773
  -0.0818651616  0.1391038153  0.1854057955 -0.0724426641 -0.1209866281
  -0.0904515965  0.0632048831  0.235904803  -0.1320521919 -0.0695518782
  -0.1498271386  0.0511850865  0.2891388427 -0.0611085252 -0.1793698004
   0.0511884056  0.2742671479  0.0694055551 -0.1849544821  0.0293028157
  -0.0643104194 -0.0334532435 -0.0205225012  0.1223445486  0.162012628
   0.1360337133 -0.0575619422  0.1570534334 -0.0596747801 -0.0621206583
  -0.0905885544  0.0643713241 -0.100294327   0.086589378  -0.0541435088
   0.116089738  -0.2583212792 -0.14339889    0.2370174309 -0.1046249928
  -0.0538397726 -0.0457147732  0.2938236197  0.1053244047  0.1302180903
  -0.0851597965  0.1758587956  0.1735829055 -0.1869357817  0.0947466878
   0.0715676436  0.108635875   0.2060879324 -0.2390151774 -0.0010950357
  -0.1453032135  0.1761729244 -0.0350965511  0.1443124901 -0.1005478696
  -0.0570683161 -0.2641917805  0.0905146837 -0.059003206  -0.0463426968
  -0.0810901014 -0.1287910875 -0.0126397626 -0.0582596281  0.2509017561
   0.1023069724 -0.1165101509  0.0110222612  0.0717726758 -0.2181744622
   0.096608398  -0.0030359216 -0.1623421604  0.0595946491  0.3454619763
   0.0498817045  0.159722251   0.108489188   0.079800668  -0.079105849 ]
 [-0.2560593208  0.1374032775 -0.0325339952  0.1615199366 -0.1476710812
   0.0628393283 -0.0198462219 -0.1588129735  0.0657040173 -0.13330881
   0.1265990236  0.1526558223 -0.0190897269 -0.1936074921 -0.0251229637
   0.1490593394 -0.0753123293 -0.0977356579  0.0637130904 -0.2515297026
   0.010118621  -0.3196763534  0.0216496316 -0.1168848393  0.3032363376
  -0.0769545498  0.0394440495  0.1544309148  0.2124808055 -0.0543444643
   0.2361409471 -0.0955170222 -0.0434569876  0.018596911  -0.0291807206
  -0.1644977072  0.2437427166 -0.1074093226  0.2308214598 -0.0342229931
   0.0133043424 -0.0345207189  0.1170483244 -0.1294376729 -0.1444028529
  -0.1156489311 -0.0010525033 -0.1539219532  0.1354449751  0.0954363776
  -0.0719101666  0.2278087049 -0.081293542   0.1407789358 -0.1104130245
   0.1336611256 -0.0531862334 -0.3358950154  0.123618458   0.2317307914
  -0.0059712912 -0.0455551329  0.1191432826  0.1878624302 -0.2953739326
  -0.0580879329  0.1825530833  0.1038703779  0.0683855856 -0.0703849135
  -0.1810781659 -0.1310500659 -0.0016746334 -0.2065496193 -0.2256297377
  -0.1358662168  0.0768137155  0.0489967765  0.3598168495 -0.0445047863
   0.1526004507 -0.0097266294  0.0650963111 -0.1172719507  0.1830666228
   0.0688087497 -0.0290835158  0.0194914119 -0.1185178146  0.3813500341
   0.0315947687 -0.0958779901 -0.0449440497 -0.3207037948 -0.0580996937
   0.0888038711  0.0556679968  0.1349013609  0.1189106451 -0.0253948543]
 [-0.2231203962 -0.1834805828 -0.0058791074  0.1031002132  0.2074962275
  -0.0353539641  0.0658183053  0.0038137491  0.3753226408  0.0035323573
   0.087304104   0.176586764  -0.0523265127  0.094581999   0.1995243704
   0.0189973019 -0.0104541663 -0.0142897395 -0.0064165983 -0.1369717755
  -0.0681720101 -0.2699742167  0.0775611993  0.1213957216 -0.0060145332
   0.0211310807  0.1229875256 -0.2672710411  0.2368600856 -0.1543680886
   0.1328402577  0.0191431682  0.2056330153  0.1702167642 -0.0518838674
   0.1324117745 -0.1818760422  0.0591119687  0.0285139563  0.1416165328
   0.0089401527 -0.1252237603 -0.0586996684 -0.0133767312  0.0534690739
   0.1575378738 -0.1069546261  0.2384889334 -0.0559577227 -0.0313592424
  -0.2659653162  0.2003411933 -0.0890679816  0.1981244    -0.1334014037
   0.0774884526  0.1856075433 -0.1352586089  0.0848911327  0.2185345542
   0.0608225736 -0.1559986413  0.1314498754  0.0740526553 -0.2498490958
   0.0249600291 -0.1212431441  0.0171596981 -0.0805003288  0.1231668261
   0.205828957   0.1659423515 -0.1035159382 -0.0897115246 -0.2381375826
   0.0281806609 -0.1144771769  0.1475344036 -0.1670662034  0.0629872615
   0.0235401577  0.0737479078  0.0771274542  0.2016517835  0.1459268197
  -0.0803061989  0.1148170749 -0.0090623929  0.0560061816 -0.2091011336
   0.039927722   0.1921039827  0.1940553086  0.0395079149 -0.0060205271
  -0.1746365709 -0.175700127  -0.1829500319 -0.1702369178  0.0508685595]
 [-0.0074182607 -0.2655273417  0.0801724307 -0.0090968859 -0.4220244854
   0.0724138213 -0.0234121134 -0.0185492813 -0.0790675466 -0.1909901511
  -0.0794807478  0.0378749202 -0.0560460707  0.1335607359 -0.0088129505
  -0.1228569079 -0.1238332416  0.0819531719  0.1714900263 -0.1405085255
   0.2628325588  0.1562845839 -0.0338607612 -0.0149820177  0.2597215836
   0.1212569328 -0.1388563113 -0.0867186481  0.1516745628  0.0763101862
  -0.033913328  -0.2457059774  0.073888223  -0.0346903121  0.026218571
   0.1646097223 -0.1176210889 -0.0904545693  0.1348657277 -0.0140756093
  -0.0486147586 -0.1658570006 -0.0359228718 -0.0086262317 -0.033225904
   0.0115263797  0.1395525229  0.1375972956  0.1137493844  0.0717722006
  -0.1815147575  0.0106164334  0.0035743141 -0.0523960821 -0.1720334664
   0.0189108476 -0.0611515231  0.1257266893  0.005907032  -0.123601622
   0.024982766   0.0310374757 -0.0558055558 -0.4142868266 -0.0878281976
   0.0719027678  0.0727446036 -0.1641030512 -0.0674341347 -0.0530583217
   0.0898115579 -0.0939876406  0.1563838034 -0.0696049508 -0.1642465531
   0.0499810214  0.0557572765  0.0243594582  0.0966257993  0.1103163011
  -0.0229383037  0.0685301763 -0.0059759852  0.1639308322  0.0734360111
  -0.5296229517 -0.0172840987 -0.0955457293 -0.2055153443 -0.4232723318
  -0.0632936817  0.0934412153 -0.0776132844 -0.1066798549  0.1390144314
  -0.1449540799 -0.007176749   0.0515293332 -0.1172087546 -0.03191032  ]
 [-0.143998762  -0.1596552698 -0.2287436028  0.1467825439 -0.0246754194
   0.101334931   0.0110063618  0.0120943604  0.0252651489  0.1373584606
  -0.2498364774  0.0315700345 -0.0032748729  0.0061030061 -0.1141479201
  -0.1061901462 -0.1695265126  0.3221734576 -0.2979517486  0.0000041622
  -0.2246663248  0.3015022547 -0.059017957  -0.1553979553  0.2006585787
  -0.2223413802  0.052720612   0.0261065262  0.1430571663 -0.0788067334
   0.1722405907 -0.3016943667  0.0001097606 -0.0398134684  0.0896601193
   0.1775151042 -0.0323740468 -0.0107269044 -0.1527141139  0.0645504385
   0.0473650077 -0.1288453036  0.0596489881 -0.0885846039  0.0502207234
   0.0847120035 -0.1332670478  0.3541379484 -0.3349143009 -0.117252004
   0.2137502092 -0.0606068315 -0.229114875   0.0049310081 -0.2078702183
  -0.0864755325  0.0609856413 -0.172168137   0.0014760919  0.1519430481
  -0.1984432272  0.0866439994  0.1398849693  0.0621743071 -0.0917512503
   0.0870159966  0.139083158   0.1978664993  0.0759382415  0.0336189225
   0.1259501658 -0.0398330262 -0.3142190347 -0.1254076789 -0.0393129843
   0.0040232808  0.1800399029  0.1065863129 -0.0429428247  0.0985017721
   0.0392298979  0.0667080894 -0.3601779185 -0.142422677   0.0091484201
  -0.009072923   0.1550593768 -0.1924389264  0.0055968874 -0.0796834056
   0.1532421066 -0.2682758737 -0.2404611903 -0.2818422987  0.0607212354
   0.1524797616 -0.0348021592 -0.1286011993 -0.3424849104 -0.1021529419]
 [ 0.0956712987  0.0549535954 -0.056728664   0.1696269549 -0.0539625696
  -0.250458936   0.2321656183 -0.0063827961  0.0605429185 -0.4044376676
  -0.1625338599 -0.1564626834  0.0239756782  0.147874268   0.016163942
  -0.0522215909 -0.0094683396 -0.0248606886 -0.0809100707 -0.0825768722
  -0.0048568787  0.0099803943 -0.0155998921  0.1948269977 -0.0488837968
   0.0232498814 -0.0122022742 -0.0537439673  0.0003684699 -0.0405785923
   0.0572546207  0.1692778178 -0.0400471647  0.2427970636 -0.0343897312
  -0.0440626499  0.083658355   0.1079831811  0.0944581685 -0.0391233327
   0.0083754623  0.0669906302 -0.0695157372 -0.0124491624  0.073498052
  -0.2173136189 -0.0076162014 -0.2277735549  0.2538950825 -0.0704176154
  -0.0136393707  0.1682886303 -0.1307455508  0.0175929976 -0.0875884919
  -0.0109752888  0.0501463119  0.0132115626  0.1329614335 -0.0320842345
   0.1290927808 -0.1859827195 -0.0951802022 -0.0929743891 -0.1092410108
   0.0231147068  0.1544909591 -0.1109538621  0.184795196   0.1113534373
  -0.0684670362 -0.0486925278  0.1988648543  0.2611441361  0.4322826587
  -0.0164535922 -0.1253963859 -0.1506657737 -0.0891942435  0.3296901699
  -0.0517573242 -0.0617488437  0.2320877675  0.3251474869  0.0049937798
   0.0791977052  0.0066665789  0.0727740256 -0.1454730434  0.0458122044
   0.0647022482 -0.0652452862 -0.0329248484  0.2746641272  0.158378053
   0.1445874007  0.0005121501  0.2220262276 -0.1206190966  0.0417861504]
 [-0.0021637067  0.2250682607 -0.022957629   0.0533684961 -0.0975004811
  -0.0719285123 -0.1222904428  0.2014412833  0.1127310356  0.0670375152
  -0.081815579   0.1683744378 -0.2350333077  0.1234664083 -0.1644454837
   0.3297623311  0.0317902647  0.0897046857 -0.2652486075  0.0379124835
  -0.0071792469 -0.1262898854  0.0363885223 -0.1247631944  0.153681035
  -0.0227579371 -0.0746529469 -0.1545249992  0.1189331962  0.1802098462
  -0.012946228   0.0885470466  0.14337013    0.1659083472 -0.0558316528
  -0.2070591454 -0.1061787972  0.1456693441 -0.0884392105 -0.0607571162
   0.0959957498  0.0248759149  0.1324085961 -0.3382711969  0.0386402391
  -0.0696833398 -0.117504697   0.0847203003 -0.1931233244 -0.1874624743
  -0.0758799916  0.0210219885 -0.1075794888 -0.0178072787 -0.1241454813
   0.1512146496  0.0331176816 -0.2323934049  0.0561978122  0.1388041925
   0.0290576792  0.0663486759 -0.2413580963  0.1008067536 -0.1900239788
  -0.0502823676 -0.1526102803  0.1095992311  0.2392600915  0.2146549438
  -0.0375131333  0.0948123447  0.0626540828 -0.109416095  -0.220703094
   0.0589584644 -0.0301034801 -0.1519315781  0.0636641329 -0.0177980168
   0.0681096137  0.1492554629  0.1540407513 -0.120959061  -0.2751382588
   0.0968978288  0.1671208749 -0.029671734  -0.3808582993  0.0490552399
   0.0436600469 -0.1743462046 -0.0390067408  0.1059205871  0.1370871369
   0.0899510522 -0.1403119874 -0.069257059   0.2470318874 -0.1499129004]
 [-0.2016989407  0.2267474408  0.020824545  -0.2013366209  0.0966403779
  -0.0476135802  0.0012182801  0.064073493   0.241471433  -0.0502944977
  -0.1363222653  0.1987360264  0.1016195865  0.057321014   0.1132682761
  -0.0310395415  0.2916548353  0.0298818069  0.0355710013  0.0431604932
   0.0295584108  0.120265021   0.0342707207  0.0239256984  0.2538163033
   0.1616890156 -0.0155064711  0.1248221173  0.0564077715  0.0270833858
   0.1203541007 -0.0777025566 -0.0276259637 -0.1557294805  0.1921094627
   0.1441061535 -0.0401415228 -0.1119622694  0.0381844284 -0.0040993531
  -0.1194858949 -0.1333235455  0.2494992211 -0.0879562331  0.2135671453
   0.2573467881  0.1212272155  0.0760440621 -0.1934363585  0.0378532479
   0.0087498009 -0.3732818283  0.0453111925  0.1497676857  0.0596398318
   0.2024589483 -0.1194632806 -0.1585567413  0.1745501714  0.0160980881
   0.1581720567  0.0689620692  0.0213229597  0.0756369301  0.1029978142
   0.1322880314 -0.1009185271  0.0934757884 -0.032496871   0.0056356969
  -0.0384163429 -0.2627395646  0.1369220192 -0.0581492401 -0.1257685491
  -0.1058562533 -0.0755135676  0.0700975886 -0.099594711  -0.0795490345
  -0.033219115   0.015026628  -0.0319578107 -0.0764972892 -0.2257302946
  -0.2295413057  0.0419751951 -0.0462451283  0.1473864977  0.185033845
   0.0325849167 -0.2137391966  0.1056339796  0.0522440087 -0.0188210123
  -0.3083478623  0.1174444547 -0.2440205263 -0.1958644617 -0.0528051736]
 [-0.0454793106  0.1568381809 -0.0758596187 -0.0728094605 -0.0851837765
  -0.0143614405 -0.0288107604  0.0484385438  0.0277661641  0.1600443957
   0.2717468344 -0.1654535619 -0.3892187509 -0.2621214073 -0.1357162973
   0.220290599   0.0744326611 -0.1203373369 -0.2183140575  0.0708127941
   0.2058206923  0.0682556488  0.1060803463  0.3909924112 -0.0039078639
   0.1429420233 -0.0884991355 -0.0366573294 -0.0591808936 -0.0828149488
  -0.0076758779  0.2030564499 -0.0468500993 -0.0110548802  0.2892357782
  -0.1491866541 -0.1104033812 -0.117118323  -0.2370676839  0.146840908
  -0.1640056544 -0.1418959839 -0.0430691054  0.2398157927  0.1146546543
   0.0047721987  0.0192805838  0.1139253994 -0.1025459291  0.1436155334
   0.1877306445 -0.0901235272  0.0586790071 -0.1199959566 -0.137121709
  -0.0640338845 -0.0029921653  0.1820410069 -0.1736436869  0.0584186592
  -0.0793459966  0.0482255097 -0.2023782198 -0.1466800332 -0.2341176853
   0.0473502469 -0.1569252029  0.1584957467  0.1480811552 -0.2037578552
  -0.073929224   0.111152119  -0.0731161963 -0.1644936025  0.1736440677
   0.2103470347 -0.1009086322 -0.3414322482 -0.3962076343  0.1177405687
  -0.2093704797  0.1136568847  0.2467081016  0.2475815685 -0.0855976044
  -0.0866700176  0.0972222377  0.0944082605 -0.0658950326  0.0675468466
   0.0588395854  0.1237050216 -0.0036802371 -0.2487414742  0.0952076315
   0.1335265543  0.0210770901 -0.013171725  -0.1521715703 -0.0453616208]
 [-0.0341835359  0.2253743753 -0.0098576812  0.0130370961 -0.007437359
  -0.2279735949  0.2233710174  0.0481250841 -0.0701652307 -0.1378837148
   0.1152825681 -0.0120620619  0.1057574091  0.0078411638  0.1944089643
   0.0665800813  0.2797196778  0.059093095   0.0907858021 -0.2388181515
   0.0413520009 -0.0285125295 -0.1672882099  0.2225017914 -0.040461357
   0.0925011362  0.0397388301  0.1287285342  0.1546971312  0.1586863686
  -0.1966194997  0.2955565568 -0.045111051   0.1551794068 -0.2633137475
  -0.2486913073  0.1243106044  0.084440674   0.1157429143  0.3362983207
  -0.0554249087 -0.0717600768 -0.2275203322 -0.0177921188 -0.5151632812
  -0.1104846206  0.1159896523 -0.1143360736  0.2498876903  0.0214357107
  -0.1279343645  0.2269686244  0.1753501944 -0.0032276449  0.0155235316
   0.020367359   0.0468794288 -0.2274312559  0.0355595248  0.1052468325
   0.0688412619 -0.0932813221 -0.0296824112 -0.1203928388  0.1484054231
  -0.0414874239 -0.0705546023 -0.05744664   -0.009563942  -0.1444011687
   0.2389925425 -0.1728601249  0.1050323135 -0.0592485913 -0.1469159539
  -0.0395731204 -0.0239320671  0.1883304463 -0.0025438128  0.1971368533
   0.1215149671 -0.1351028576  0.0573276108  0.0424638189 -0.2454373776
  -0.1219082131  0.1597345646  0.2900543376  0.1529428293  0.1286532553
  -0.1783804591  0.2703669939 -0.032918834  -0.0176780194  0.0379573859
   0.0617144144 -0.0913018152  0.1456547811 -0.1721313487 -0.1230371837]
 [-0.0626048824  0.0565243444 -0.0415028897 -0.0821583731 -0.0825979335
  -0.3351400736  0.0278246197  0.2238599626  0.0027068423  0.0913643688
  -0.0553425531 -0.1335241567  0.1182053287  0.0732334701 -0.0130624019
   0.1281411938  0.1430203387 -0.1035351658 -0.0840630084  0.0886584205
  -0.0538479574  0.0140552211  0.1061857026  0.0855626099  0.244487982
   0.1006505372  0.0897285068  0.1209463278  0.0483441465 -0.2315534985
   0.1092961513  0.0733024346  0.1191278461 -0.0003408449  0.1933993706
   0.3385320025  0.0771342413 -0.0913693997  0.0002415959 -0.2164194698
   0.0516322797  0.0548943617  0.0531290067  0.1600481384  0.0887483714
   0.037098759   0.1063704347  0.2788978756 -0.0457907478  0.1642095206
   0.0123739677  0.257352345  -0.0270723785 -0.1645838754  0.0517591839
   0.1736678381 -0.2389806285 -0.0004478246  0.127022525  -0.0199970203
   0.2778481837  0.0592038578 -0.0592880756 -0.1588035936 -0.2038463105
  -0.0607746906 -0.1177927537 -0.153090701   0.1348296168 -0.0211928586
  -0.0025023715 -0.0524047789  0.2120716683 -0.0125176339 -0.0181175878
   0.0079864949 -0.0278057154  0.1050675123  0.0462631214  0.012680172
  -0.0689307341  0.0856375426  0.2968536833  0.0464779855  0.0101097454
  -0.1428298274 -0.0151304702 -0.0283623012 -0.0411340473  0.1275601048
  -0.0181922266 -0.2237582358  0.1060691479 -0.0441460673 -0.0653654617
  -0.1638199306  0.1239200123 -0.0556866601  0.069961325  -0.037300608 ]
 [-0.0504167867  0.0758301006 -0.0496775551 -0.0552473465 -0.0262896795
   0.2402359608 -0.0068036157  0.2815758144  0.0020459873  0.1772674606
  -0.0213205943 -0.1061992191  0.0303877499  0.1296239731  0.1290256839
  -0.0002652973  0.1311596396 -0.2084950067 -0.0566946118 -0.1224257912
   0.055731643   0.0706782101 -0.078316407   0.0266269023  0.114767384
   0.1054603917  0.0679798381 -0.1686404745  0.1298499984 -0.0678544247
   0.0880107273 -0.0695557415  0.232666972   0.0056089931  0.0958584653
   0.0076207621 -0.1143906948  0.1528779336  0.0221817172  0.1190233118
   0.1322809078  0.2762458663 -0.1352420463 -0.1474177957  0.0089403286
  -0.0562246739  0.1171171167 -0.0768385207 -0.0265091222 -0.1568453853
  -0.0264714612 -0.0529113602 -0.0363739917 -0.2149745018 -0.0448044127
  -0.3001769404  0.0012822102 -0.0098601541  0.085554917  -0.2073300102
   0.1475705289  0.2751820508 -0.0747973251  0.272338326   0.1688549203
   0.1129527337  0.2029454164 -0.0369497869  0.0680333929  0.1983814328
  -0.1392138731 -0.1284995699 -0.1490406825  0.2538404009 -0.1637851975
  -0.1450082745  0.1500213005 -0.0186592013  0.0699688279  0.0615612776
  -0.160494878   0.0503081774  0.0266728176  0.1188388483  0.0143587402
   0.2268106061 -0.1514068697 -0.0064090373  0.0219421785  0.0259405975
   0.3140498189  0.1733817351 -0.1065469607  0.0235571711 -0.04154869
  -0.0200227081 -0.0739071965 -0.0671415892 -0.157757545   0.1065725011]
 [ 0.0685535016 -0.0598008086  0.1539962375 -0.0873892004 -0.1003646394
   0.0095756263 -0.0311266741  0.0431673554 -0.0920836666  0.1984783455
   0.0919852342 -0.274242106   0.11922875    0.1803427481 -0.0295418753
  -0.1043582898 -0.2281912583  0.0044270666  0.127737722   0.2201280347
   0.0337241489  0.1085126409  0.0045018803 -0.029222066   0.0957106377
   0.1055732938 -0.273437596  -0.0487492677  0.2311133953  0.3106811481
  -0.1526553747  0.2001459375 -0.2119609888 -0.002179653  -0.0155990173
  -0.2254741259 -0.1796808683 -0.2676777818 -0.0339865436  0.0295240529
  -0.0601033424 -0.0555719393 -0.0783649687 -0.0629840094  0.0736997855
  -0.0168748443  0.1378600018  0.0005484114  0.0405477568 -0.4755347373
  -0.0362447265 -0.2500535031  0.1815476619  0.1271817501 -0.179659845
  -0.0872481512  0.1949577706  0.2062030741 -0.022035652   0.1159422533
  -0.1039936399 -0.0580085662 -0.0892146878 -0.0589023713 -0.0788259376
  -0.149129732  -0.0268315094  0.0614686922  0.0468535355 -0.2904668121
  -0.0301124254 -0.22205253    0.1102670542  0.3371626442 -0.0662555475
  -0.0610437238  0.0571456101 -0.0829144964 -0.0546204492  0.2008138667
   0.0698933008 -0.2000493663  0.1260787961 -0.2028579319 -0.1476246613
  -0.0086652174  0.0470961594  0.0308224981 -0.098545167   0.0824948102
   0.1449516074  0.2340372613 -0.0374102558 -0.004921217   0.0263592864
   0.2837919228 -0.1454138785 -0.0562573247  0.1243204385  0.4111512406]
 [ 0.3113806712  0.0254810093 -0.2698841006  0.0931042942  0.1339463593
   0.1194271423  0.0624047235 -0.0580204729 -0.1885775144 -0.1392303881
   0.262082196   0.0508009616  0.042207054   0.0543563685 -0.1123982159
  -0.037933177  -0.098480748   0.0103468008  0.0222116337  0.0505538874
  -0.0217570163  0.0102467796  0.0256217669  0.0067800428 -0.0585539029
   0.0000192239 -0.4038952341  0.1170022293 -0.0444984544  0.0315094895
   0.0334701633 -0.0707871611 -0.1323255358  0.0572098558  0.0360011083
  -0.2757182755 -0.1589183356 -0.0625279414 -0.008581927  -0.0627664645
   0.0045973382  0.0223245288  0.0770812774 -0.3710637189  0.0486820906
   0.1468303079  0.0073662272 -0.062720228   0.1465043781 -0.0288451305
   0.2027822871  0.1073397722 -0.0020197186 -0.1042564773 -0.0209689343
  -0.0086884759 -0.0517912478  0.1590798903  0.2140848045  0.128551133
   0.2494502464 -0.0287100077  0.2588936011 -0.175059718  -0.1247949921
  -0.1588178794 -0.112871949   0.3054914774 -0.0481404931  0.0008315941
  -0.0723277234  0.2614998778 -0.0660607616 -0.07328667   -0.0408187426
  -0.0075690965 -0.1171293688 -0.037778233  -0.0525440971 -0.0618986152
  -0.0247845709 -0.083701511   0.1283011958  0.1816288606 -0.3641310891
   0.3321343312  0.0530730637  0.1008050104  0.0713393582  0.0018103093
  -0.0636099869  0.0551666432 -0.0889626101 -0.0084488328  0.0186081225
   0.1903861068 -0.0568396632  0.1085887108  0.1821142003  0.0108248741]
 [ 0.0000239879  0.029090081   0.0029911532  0.1282720267 -0.0135549824
  -0.2302370272 -0.0566870285 -0.0578952303  0.2549990897 -0.2507964736
  -0.1686697521 -0.0793092863 -0.0171679098 -0.1425318253 -0.0148307276
  -0.1139258433  0.1149459113  0.048302092  -0.2226779304  0.0226410735
   0.1294226953  0.2912756729  0.0520184148  0.1351340781 -0.1351232885
  -0.2109393594  0.0501538339 -0.1878656779  0.0590629585  0.0005690594
  -0.2553072582  0.0546704409 -0.1370690343  0.0688640948 -0.1083463883
  -0.0610692997 -0.0357136128  0.1593954042 -0.254900257   0.1572118357
   0.0147821773  0.0496936455  0.0711348723  0.1117615088 -0.057789483
   0.0272807456  0.285766601  -0.0617002673 -0.1705915647 -0.0696632611
  -0.1742688725 -0.1385392227  0.0022262496 -0.1186407298  0.0750435336
  -0.0423227617  0.1441722982  0.1509146718  0.1583272595 -0.0636205889
   0.0875228698  0.0438662535 -0.0372822659  0.1368670647  0.0402933274
  -0.21741016   -0.0949181261 -0.1237561125 -0.0547475587  0.117896682
  -0.1580645506 -0.0080882974  0.0785807608 -0.1589056803 -0.0538450439
   0.0032900856 -0.064201026  -0.2991194891  0.1646175959 -0.0484360207
  -0.1796073807 -0.0038833617 -0.0884590218  0.1343621109  0.0906556815
   0.0918897958  0.0274607595  0.0166912929  0.3596637669  0.0046570783
  -0.0238044713  0.2906487585  0.0440837262 -0.1602274522  0.0133975018
  -0.0418696868  0.0478498392  0.2600886239  0.1257828325  0.0578783869]
 [ 0.0360319362  0.5091466206  0.1787494158 -0.0031135098  0.1537593067
  -0.1787210999 -0.0070864136  0.0024916054  0.0212389151  0.1594187751
   0.0805665183  0.0295731198  0.0473889235 -0.1103554571  0.0909496082
  -0.0407783221  0.1391379313 -0.1114779035  0.0830089579 -0.1477468205
  -0.0497530292  0.1830134995 -0.0771792441  0.1448166475  0.1649413228
   0.1148804729 -0.037297229  -0.193998341   0.0736700083 -0.012772322
   0.0424355463  0.1373172514 -0.0671688998  0.0814001845 -0.163482951
  -0.0917395479  0.2521139138  0.0738080863  0.1741741804  0.1306338855
   0.1338625359 -0.1362198276 -0.1503740814  0.2270415857 -0.1780345376
   0.1169878207  0.0381938413 -0.0441531577  0.2464328874 -0.2906294706
   0.0436640103  0.1974077725 -0.1086584067  0.325910701   0.0372882583
   0.0777831727 -0.2415702366  0.0202143817 -0.0743459314  0.2776783748
  -0.02609246    0.0541880117  0.0724024418 -0.0895890218 -0.1542847994
  -0.2080648327  0.080685431   0.159021143   0.113143036   0.1130714586
   0.1467970637 -0.091747084  -0.0922928487 -0.1343834339 -0.028442753
  -0.0157701248 -0.1255073333  0.131371914   0.0049599487  0.0890834091
   0.0803193076 -0.0120975133  0.1146147566 -0.073038483  -0.0977118579
  -0.1606362528 -0.0410574516  0.0276572914 -0.0306317298 -0.0876834609
   0.08212903   -0.0586328153 -0.1909962367  0.0667293633 -0.0015191924
   0.2922511561  0.0379215367  0.058021453   0.0078116639 -0.0478719436]
 [-0.1162463805 -0.1200242205  0.1998150922  0.0963472981  0.2121551372
  -0.0546684243  0.006640278   0.1470956712 -0.2488118444  0.0750096024
   0.051247687  -0.025118495   0.0655030288  0.1789695471 -0.0731886493
  -0.0494372537 -0.1288741944  0.0204549323 -0.0088527013 -0.2408681233
  -0.0570955199  0.0020825039 -0.1109677527  0.0101734953  0.1044292592
  -0.332216633   0.0240581879  0.1217779212  0.0236352972 -0.0952265549
  -0.1241415336 -0.0990270483 -0.1777403819  0.1081587558 -0.1062103692
  -0.0251206625 -0.048662914   0.08693789   -0.2536854013 -0.029468263
  -0.1931989509 -0.0046832421 -0.1688586777  0.1751159568  0.029150281
   0.0936495533 -0.000261146  -0.078811292   0.1581868618 -0.3031514242
   0.0740323536 -0.1163752339 -0.1717978061  0.1112684664 -0.0208652963
  -0.014903018   0.1427249265 -0.1821029193  0.1489240846  0.0871044266
   0.1406782276  0.4588094159  0.2125840727 -0.0819035285 -0.1355870683
   0.099431029   0.0444439302 -0.0242118416 -0.1914847318  0.3236429814
  -0.1666692234 -0.0627117941  0.1417993818 -0.0049774054 -0.0955352407
  -0.0385830072  0.1102672621  0.1451282277  0.1253241219  0.0055319149
  -0.072016181   0.0157021271 -0.047384661  -0.0454051103 -0.243160783
  -0.1013289332 -0.121368541   0.0226004627  0.0476998997 -0.1627818132
  -0.2043057134  0.0870748974 -0.0994607326 -0.2724602255 -0.0345218396
   0.013675581  -0.2117466355  0.333507596   0.048627493  -0.0089731003]
 [-0.0071055772 -0.0518587252  0.2079625097 -0.1291283948  0.1852223943
   0.1235402703  0.2215355393  0.0167535227  0.0031708128 -0.1436257606
  -0.1867862026 -0.2047932366 -0.0078496203  0.2052829785 -0.0382867491
   0.1502941123  0.1604588198  0.0261905613  0.2132243317 -0.2722033721
   0.0872136718  0.0853202034  0.0662561042  0.0239279741 -0.2761448531
   0.0518732987 -0.104942532   0.0434899228  0.3360454612  0.1383486231
   0.012791882  -0.1077928335 -0.0178581498  0.1459375024  0.1406230285
   0.1136894336  0.2653971163  0.1915064219  0.2130766535 -0.0321896803
   0.0079649436 -0.0763966053 -0.1098794605  0.024249214   0.204963556
  -0.0120808572  0.0437337581  0.1267573536 -0.0019347661 -0.2533605552
  -0.1007258395  0.1782822583  0.2029978011 -0.0634507774  0.0719186835
   0.1996807996 -0.0200330407 -0.1094395854 -0.2145697841  0.0660150224
  -0.0843712939 -0.1219143624 -0.1319455601 -0.0237582605  0.2289678153
  -0.0102288464  0.2680016531 -0.1911304821  0.1294011802  0.3352815856
   0.0073997836 -0.2274469933  0.1735231482 -0.0903163132 -0.1747068848
   0.0268665085  0.0045159489 -0.1202998754 -0.0390728354  0.0433348123
  -0.2244253856 -0.1071087276 -0.3115830001 -0.1445972283  0.1161861046
  -0.1356528825  0.058163519   0.0156497994 -0.3400472423  0.1943449338
   0.1136292874  0.0690728219  0.1253165502  0.0251954848 -0.1770936453
  -0.1089379533 -0.2650150498 -0.009727167  -0.0399784012 -0.0757245425]
 [ 0.0273793961 -0.2216379555  0.1776594933 -0.1399652746  0.0120747391
  -0.0941066516 -0.0281185976 -0.2000062853 -0.0183984793  0.2197552279
  -0.1532753039  0.0891646911 -0.3403801253  0.1670598339  0.2272448195
   0.0649337914  0.2453823736  0.0432963074 -0.2980176721  0.0593911698
  -0.0555404346  0.2796535596 -0.036323667   0.097840107   0.0364525442
   0.0040533752  0.2092269236 -0.068959717  -0.1291794508  0.0868802028
  -0.1550893391  0.0309832637 -0.1167696732  0.1167978104  0.4580910063
   0.2974822947  0.1394553534 -0.1878924061  0.1337105862 -0.0697804738
   0.1486099559  0.0458095951 -0.2024261793  0.0591441682  0.1240537935
  -0.0315620655 -0.0094951158  0.0215886938  0.2501944301  0.1042536125
   0.0889614315 -0.1298825826 -0.051276513   0.0188502187 -0.0078856927
  -0.0428742093  0.1420019203  0.035728309  -0.0276892565  0.4050983016
  -0.0525952397  0.1008284768 -0.1661554834 -0.0369254168 -0.1593495669
  -0.184591288   0.0031195025 -0.1568218656  0.1566316006  0.061820532
  -0.0211305337 -0.0792399095  0.1688661709 -0.2232855587  0.0345538868
   0.3932963087  0.1505482921 -0.1296775053  0.1042684899  0.0160269317
   0.0622790597  0.170163565   0.1385203749 -0.0049587889  0.1728947976
   0.1683338918  0.1685309296 -0.0269901622 -0.0764655329 -0.0852560891
   0.071610374  -0.0210407068  0.0537657992 -0.0625248557 -0.1383922326
   0.2207010606 -0.1499431702  0.0106630678 -0.0498963611  0.0415376873]
 [-0.0593021507  0.0051998581  0.0074722199 -0.0524325211 -0.1303464233
   0.0481065871  0.0525270254  0.073988241  -0.1226355645  0.009052934
   0.1512253036  0.3047456232  0.0204872967 -0.0874042823 -0.1085594701
  -0.0435577305  0.058348338  -0.0000502855  0.0552267645  0.0690851323
   0.1758929371  0.0765942348 -0.1500935431  0.1536286722  0.0464772481
  -0.0644272703 -0.0172450023  0.0474911748  0.0798563532  0.0616312373
   0.2187502381 -0.0323820618 -0.0692994404  0.0276143057 -0.2878647068
   0.0181908364  0.0366893859  0.058755609   0.2632352824  0.107627106
   0.1380423565 -0.1009309286  0.3253302046 -0.0904390492 -0.0987804225
  -0.2152563096 -0.0457898853 -0.2656333514 -0.0201828192 -0.0481661928
   0.1317303018  0.0680185686  0.0285526894 -0.0165594733  0.03914495
  -0.0890773802  0.302349996  -0.1063596406 -0.0496570759 -0.0602106987
  -0.1242828562  0.0010269419  0.1402710047 -0.4070264206 -0.0858975441
  -0.0512465677 -0.0358205152  0.166262051  -0.0264210298  0.049342112
  -0.106226589   0.0133536382 -0.1369079394 -0.0188322801 -0.041089323
   0.0248416544 -0.0297267706 -0.1705138922 -0.008274014   0.0115098496
  -0.1991747571 -0.0271602099  0.3227208969  0.0277408486  0.3087032754
   0.1583968951 -0.2605142506 -0.0225700009 -0.0879114273  0.0940731565
  -0.0670971063 -0.4063212124  0.007393131  -0.2393469318 -0.1546613764
  -0.1482892514 -0.0602085476  0.0252662121  0.0132014934  0.0989299974]
 [-0.0259203385  0.0430140768  0.0325201137  0.1219729227 -0.1192366648
   0.1274502784 -0.0462891041 -0.0619686639 -0.0671172685  0.0448227195
   0.0036281836 -0.2088444019 -0.0098141365 -0.0832050679  0.03845442
  -0.0945646907  0.0527321361  0.1620241012  0.1773624476  0.2007319885
   0.2060816148  0.0417436842 -0.1229553252 -0.0939254338  0.0186492976
   0.0757102709  0.010396656  -0.0149113181 -0.1760379702  0.0383688798
  -0.1407256745 -0.2593879468  0.0448520111 -0.1223615569 -0.1635636398
   0.2233463687 -0.2364927476 -0.1727540614 -0.059466016   0.1346920533
  -0.0346824525  0.133220883  -0.1052735423  0.1583478122  0.1349976876
  -0.000489873  -0.0521251865  0.1568953371 -0.0028642732 -0.0757122032
   0.0067652401 -0.1190679906  0.1185973597  0.0643197366  0.2152967429
   0.1173046602 -0.0734580879  0.3117159422 -0.1804207869 -0.0306866915
   0.0710924956  0.1539819717 -0.0157271742  0.2638054408  0.1593787538
   0.3537814485  0.2699289288 -0.1065818377 -0.0084459554  0.0552928469
   0.2075483283 -0.0788711734 -0.2429172643 -0.0969259633 -0.0226977282
   0.089103413   0.0421602922  0.0372138954  0.0367251496  0.032311093
  -0.205650992  -0.0114234584 -0.1004347327  0.2522188713 -0.1336323963
  -0.2299403487 -0.0606767132 -0.0612996554 -0.0277854675 -0.1066975116
  -0.0965783422 -0.0092912029 -0.1447736806 -0.5250736993 -0.1320881505
   0.0138938308 -0.013705993  -0.1174441664  0.015767035   0.0028030597]
 [-0.0272574778  0.1980769997 -0.0500692173  0.2476626478  0.1507527501
   0.2371810449 -0.033733279   0.3430928858  0.1111906683  0.042506669
   0.042574807   0.1881445638 -0.2169015335  0.10168901   -0.1078171803
  -0.0358975043  0.0484742299 -0.133356449   0.0667340544  0.1601814966
   0.2523698924 -0.046420523  -0.1423683351 -0.0065926098 -0.0352336779
   0.0921986827 -0.1437876272 -0.1986119587  0.1058930638 -0.0000507208
  -0.1009906474 -0.0342218773  0.0898266333  0.0464509045  0.1429737808
   0.0926569734 -0.0024653578  0.0518431444 -0.0302091469  0.1943461447
   0.255666445   0.0879227833 -0.1396707976  0.283597904   0.0246229747
  -0.0092232815  0.0229160539  0.0559360669 -0.0472021937 -0.2576118003
  -0.0290483699 -0.1118326946  0.1839920802 -0.1033119271 -0.2683869103
   0.0451504867  0.089244325   0.1077341504  0.1122584448  0.0903139846
   0.109558515  -0.1834780775  0.1211176382  0.035288169  -0.1218419817
  -0.126316146  -0.0169812548 -0.0024670799 -0.2204670369 -0.0965707022
  -0.1369980456 -0.0632213328  0.1251566901  0.1680182902 -0.0159878913
  -0.1334206658 -0.1438080929 -0.0560798125 -0.0424087472  0.1132726491
   0.3234385403  0.1593219453 -0.1653505134  0.2337442058  0.0751794662
  -0.0247515908 -0.229571789   0.2721958226  0.2011646818 -0.0080905263
   0.1280005342  0.10712507   -0.3195389424  0.1138048671  0.0368225965
   0.0858008674  0.0765307197 -0.0829596777  0.0896513021 -0.3220556377]
 [-0.0135270556 -0.0570397612  0.0913554911 -0.1150760367  0.1141159448
   0.1386949882  0.0290513508 -0.0331967313 -0.1926636262  0.2528253895
   0.1456527144 -0.1887846564 -0.0554064032  0.018255207   0.0885887157
  -0.0648263016 -0.0550962656  0.0435619446 -0.2889848577 -0.1143374503
   0.0688040527  0.0518453303  0.0198677082  0.0786697335 -0.0484483643
  -0.0847962684 -0.112352591  -0.0630866981  0.2120255682 -0.1037985721
   0.017061102   0.0934934074  0.1499137109  0.0681706311 -0.1991510604
  -0.2188616681  0.107484512   0.0706281429 -0.0182353917 -0.0526316416
   0.1677772247 -0.1252958511  0.176825328  -0.0720372475  0.0409562371
   0.0248171606 -0.1057752473 -0.1116804022 -0.074697601   0.1031448424
  -0.2807683028  0.1170090851 -0.0236110035  0.1732782339  0.0163779761
   0.0332748106 -0.2683256643  0.0375771183 -0.2060970909 -0.261950389
   0.0422224535 -0.1725741606  0.0556122328  0.0044246384 -0.0152943522
   0.0753738115  0.2410453862 -0.0893298216  0.0012854596 -0.0077960666
   0.1336139598  0.0127524932  0.0116389679 -0.1556197447 -0.0001586435
  -0.0058029018  0.181086954   0.1623504451 -0.0113586898  0.0074449637
   0.0599698125  0.0807236346  0.0757296179  0.1541117681  0.0719113836
   0.0515747862 -0.0701499191 -0.019135607  -0.2486043529 -0.097466483
   0.2229419246  0.0076252592  0.0607682061 -0.0230175794 -0.0012698202
   0.3187518554 -0.1686412216 -0.3569361133 -0.1877549095 -0.0295094254]
 [ 0.1405993576  0.0451428502 -0.0463634896 -0.0973259434  0.2191743856
  -0.028425988   0.0589231412 -0.009902719  -0.0449327373 -0.0204533038
  -0.0287789065 -0.0121942243  0.1125229706  0.0199001183 -0.0623933384
   0.2249405171 -0.2379996166  0.0228237848 -0.0209968456 -0.004953905
   0.1060484301  0.1263825869  0.0056160001 -0.0034773923  0.0012105619
   0.0205880564 -0.0704498594 -0.1718553013  0.239849106   0.198045609
   0.0667819384  0.1681207332  0.0509791209  0.293039594  -0.0669727786
   0.0438790685 -0.1001499448 -0.1351976883 -0.1169816526  0.0508057849
   0.0206556256 -0.1289733243 -0.0810845071  0.0474636349 -0.0269920458
   0.0367286901 -0.1048603616  0.0350385114  0.1421843725  0.148130153
  -0.0431129085 -0.0060324902 -0.1530166648 -0.1591402198 -0.0322483251
   0.0621171805 -0.1511884862  0.0580454802 -0.1424083468  0.2897967392
   0.0858373037  0.0426025968 -0.095994332  -0.0522432435 -0.0197048165
  -0.0712030524 -0.0556940997  0.1282460478  0.0162747627  0.0602444675
  -0.0171411337 -0.1551615147 -0.3566675948 -0.1256345685  0.3364995585
   0.2982932203  0.1664435465  0.0668936824  0.0464560308 -0.3070238037
  -0.0029523107 -0.0886449499 -0.0725403763  0.1850227582 -0.1845784542
  -0.1278210347 -0.1384983837 -0.1262193715 -0.1920085392  0.069163448
  -0.1539055449 -0.2008452613 -0.0668609198 -0.1678186697 -0.1278461395
  -0.0703742029 -0.080771995  -0.3024558079 -0.1310578881 -0.1007163398]
 [-0.0115695005 -0.0209392145 -0.1181781513 -0.010785147  -0.0886293479
  -0.1104752325  0.0337495932  0.0989288359 -0.1305397754 -0.0310001596
   0.205589067  -0.0628416267 -0.3627134522 -0.0268012944 -0.0501153306
   0.14403392   -0.1651670344 -0.2235295947 -0.0190321108  0.0939923708
  -0.0122329882  0.1029270448  0.1462190565 -0.0240913145 -0.0486930521
   0.0872908834 -0.1028901253 -0.1810065194 -0.1218675177  0.1022162209
   0.0933941584 -0.0126110752  0.0029901511 -0.0682350202 -0.102143019
   0.1630514075 -0.1107203832 -0.0156617399 -0.0185250061 -0.1009396036
   0.0050366556 -0.0834385131 -0.0443906286 -0.0378431237  0.0384779904
   0.1047118857 -0.0793438601  0.0006522077  0.0463014657 -0.0475413943
  -0.1436954337  0.2972600348 -0.1328073323 -0.1100920651 -0.0429348412
  -0.0382295229 -0.0618032497  0.0920383239 -0.0701438969  0.1167101776
   0.0382931286  0.0023509391 -0.0311004461  0.2135007437 -0.2291091159
   0.1106860392 -0.0570221771  0.0048342977 -0.0997281075  0.2178616573
   0.0227101171  0.1912979059  0.1461355629  0.0584080402  0.0198815785
  -0.4045152483  0.0829473824 -0.1317909561  0.1980492146  0.1365580764
  -0.2278065404 -0.169261815  -0.0256086386 -0.0992978622  0.1660114167
  -0.1175266531  0.0215386825  0.0761535531 -0.0449825867 -0.0980474278
   0.1984045102  0.2211276124 -0.0536961814 -0.1271432412  0.0250922724
  -0.0298749324  0.1268506179  0.1111355504  0.1328814594  0.1220792406]
 [ 0.0393209057 -0.0590910787  0.1900187396 -0.1657261774  0.1694733639
   0.0074132273 -0.1437298175  0.0791675108  0.0036892964  0.0725298778
   0.258059418  -0.0052772034  0.0668665043  0.1522573942  0.0180687534
   0.0517092452  0.0171676268  0.1257532254  0.0820618223  0.0136742094
  -0.3418237757  0.2075117973 -0.2111496363  0.1855344872 -0.1010604924
  -0.0326727979  0.2002757105 -0.0503016171 -0.1578448623  0.1916045582
   0.119515293  -0.1350569274  0.1888200541 -0.0711901031 -0.0911642515
   0.0011238702 -0.0988945487  0.0873239986 -0.053187356  -0.1112853248
  -0.040059143  -0.0851162762 -0.1111251181 -0.1665689552  0.0672910082
  -0.1832799159 -0.0605089666 -0.1473867126  0.222454857   0.0431202343
  -0.0353127636  0.2153150451  0.02207079    0.0901492919 -0.0041277413
  -0.1085400393  0.1107202379 -0.0198004871  0.084269628   0.2001923588
   0.1033077119  0.0739030943 -0.0552675021  0.1396389249 -0.1739787752
   0.0535953556  0.0305844473 -0.0441181969  0.0724798643 -0.0260907198
   0.2160018022  0.0217646623 -0.0298478945 -0.0102667512 -0.0902483394
  -0.0087426746 -0.1020606212  0.0421751973 -0.094250541  -0.1756308171
  -0.062807105  -0.0717181762 -0.046293179   0.1532622122 -0.3170729561
  -0.0255505441 -0.1062605847 -0.0384416852 -0.0526762595  0.0109839622
   0.0970991483 -0.2680812014  0.0613884258  0.2859433165  0.0016822191
   0.1368107998  0.1668458809 -0.1094937785 -0.1674160944 -0.0009190119]
 [ 0.015078095  -0.0551373843 -0.1587280072 -0.0527136407 -0.2587776438
  -0.1584395468  0.0861621251  0.0476242922 -0.1619215627 -0.1545121899
  -0.2204675409  0.1792633183  0.1408256693 -0.0633060936 -0.2159687947
  -0.0998455084 -0.1772712595  0.1384116532 -0.1576405841  0.3404888633
   0.2179180505 -0.0442919714 -0.0504163475  0.0545934436  0.0693704267
   0.0453494888 -0.1410220671 -0.1062809014 -0.0925939655 -0.2394899119
   0.0400258143 -0.0851073883  0.0071061862  0.1408675198  0.0274469099
  -0.3253273734 -0.1977091916  0.0613277574  0.2160287959 -0.0241405417
   0.0300044507 -0.0476756451 -0.1158047139 -0.0702911712  0.01140229
  -0.0338944838  0.1965228266  0.019868316   0.0042823734  0.0664294468
  -0.1227423341 -0.1567295183 -0.1194682204  0.13838485    0.1187398101
  -0.2443557783 -0.0557889042 -0.0390151056 -0.1185251908  0.1910592982
   0.0773954672 -0.1888262284  0.2320932487  0.1621193462  0.0101228658
  -0.0238999007  0.1837598487  0.0845931269  0.1614909117 -0.1898034724
   0.1027769305 -0.0868579723  0.2607087335 -0.074503091  -0.2306354138
  -0.0846567598 -0.2763046415  0.0074998603 -0.0619323133 -0.0630100336
  -0.0634666776  0.0961618029 -0.2561238441  0.3398631554 -0.0296316547
  -0.3404510203 -0.0346434278 -0.1252055805 -0.1444146683 -0.2544883598
   0.0064479673  0.0222241746  0.0150839646 -0.0425067573 -0.10426308
  -0.1854622815 -0.0163564781  0.0567157338 -0.2254215351  0.04423295  ]
 [-0.1172046697  0.0056748028 -0.0290866555 -0.0136842769 -0.1042950896
  -0.2260387885 -0.1752426146  0.1605634679 -0.0369958397 -0.088000738
  -0.3969949308 -0.2081332992  0.1250169769 -0.0335520914  0.0185007705
   0.1782116502 -0.0037280054  0.1187002744  0.0487743225 -0.0839782236
   0.040828619  -0.0266464192 -0.317008016  -0.0145210957 -0.1560205378
  -0.005577447  -0.1087424727  0.018677425   0.0623621473  0.0859062114
  -0.0808187166  0.122869767   0.0712710035 -0.0179995935 -0.185954184
   0.0174509221 -0.0182782901 -0.0826122845 -0.0279605972 -0.1817134647
  -0.0269545015  0.126958284   0.0357079716  0.1373462733  0.2232256494
  -0.311486587  -0.1421961885  0.1080954251 -0.1743413787 -0.1622969619
  -0.0668367947 -0.1774482825  0.0775714269 -0.0791076535 -0.2042647423
  -0.2114460577  0.0505702171 -0.1185560705  0.0116473298 -0.1854811614
  -0.0114881492 -0.1508915073 -0.1829976126  0.0928766598 -0.1642354409
  -0.0131009361  0.0247571599 -0.1764178761 -0.024937276  -0.3645400626
   0.0093747805 -0.0952761851  0.0806031835  0.1024521794 -0.2060464254
   0.0017592165 -0.0809183298  0.1840413585 -0.0636236909 -0.2039961828
  -0.1365941649  0.0748093557  0.0048653264 -0.126583781   0.0090561615
  -0.0643838397  0.0426113094 -0.1294222062 -0.1822788408 -0.2425530376
  -0.0246342301  0.0777400204  0.0573083085  0.1536645456  0.1016662216
  -0.0563763806 -0.0395721751 -0.0028933562  0.0159784626  0.0408214609]
 [-0.2099809888  0.1449488549 -0.0786321349 -0.1004633815 -0.1054386548
   0.0256204267 -0.0723611677  0.1205985897  0.0899330941  0.116114429
   0.3081427866  0.1496269608 -0.1915895293  0.0439963184  0.1114326503
   0.0552963303  0.1543419532 -0.0410818404 -0.0016075503 -0.327720508
  -0.1529637381 -0.0328858596 -0.1886307265  0.0809748588  0.0189132416
  -0.0277307712 -0.0942639987 -0.31042402    0.0653492976  0.1569560544
   0.0512216282  0.076494126   0.1967074676  0.0666913687 -0.0827959671
   0.0152041534 -0.0335721323  0.0679401277 -0.1823358877 -0.2603011308
   0.0427166801 -0.191098382   0.3342831898 -0.1812182299  0.1393553854
  -0.0605456669 -0.0363700304 -0.1390332425  0.1985162893  0.1195138952
  -0.0409481742  0.0628379762 -0.11850417    0.0195536221 -0.1810998155
  -0.1548852051 -0.0543252041  0.0737910179 -0.1894502421  0.0013424019
  -0.0195266942  0.2713178913 -0.004193627   0.180679045   0.1444460848
  -0.1955110934 -0.0206498107 -0.2279959839  0.0959405585 -0.2245940954
   0.1543304093 -0.1039940756  0.0047856831  0.2174559256 -0.1611076315
   0.0286506874  0.0659203642  0.0572442151 -0.1008566619 -0.1749791049
   0.1324052919 -0.2340774555  0.1612172007  0.0511599491  0.0683383781
  -0.4002708448  0.34005843    0.1721680282 -0.0289536792 -0.0017490407
  -0.0292610747  0.0866790204  0.0505975587  0.3348406877  0.2496458668
  -0.0435823932 -0.0963261206 -0.2779421587  0.1058382657  0.1860830972]
 [-0.153893005   0.1544503079 -0.0788467846  0.2867387241 -0.0411848964
   0.0430279685 -0.0036474669  0.0979266945  0.1091169875 -0.1288237233
  -0.2957802705  0.0856470561 -0.2097254935 -0.0336598035  0.0582644254
  -0.1437933061  0.0549156122 -0.0653996616  0.025271285  -0.1306034939
  -0.240350103   0.0212130315  0.0267864112  0.104116056   0.072973331
   0.2235141314 -0.0133257765 -0.0439342937 -0.3121082268 -0.0556499818
  -0.3367925314 -0.0770033762 -0.1040959468 -0.2147111979  0.0520978924
   0.2733639714 -0.1317790356  0.0004726263 -0.0076801957 -0.1179035643
   0.0620567811 -0.0988806037 -0.1951945495 -0.0796645326 -0.3338510315
   0.0351105672  0.3363629477 -0.2726753286 -0.2233092122  0.0357825855
  -0.1421990602 -0.0663202346 -0.0509033322  0.0258381754 -0.1211219818
  -0.2516499967 -0.0986667008 -0.1016184804  0.0820348034  0.0550153015
   0.0728501289  0.1842098943  0.0140861467 -0.0687381741  0.2898865301
  -0.1607644479  0.0569556414 -0.0763648487  0.0129623213  0.2523567585
  -0.2120015943 -0.4252273621  0.1569415614 -0.0861623982  0.0285680927
   0.0918041632 -0.0867081959 -0.0178741666 -0.0683285516 -0.1814730553
   0.2653405056 -0.0819380773  0.0236602197 -0.1662226443 -0.1871475214
  -0.0991991085 -0.0410764934  0.0671879683 -0.1637222415 -0.1335504366
  -0.1985346874  0.1319633435  0.2150834559  0.0589716104 -0.0246816898
  -0.1334479609  0.1840847922  0.0629126201 -0.0646189572 -0.0800623775]
 [-0.0575605088 -0.2547710867  0.1002378019  0.0100430984 -0.061474982
  -0.1435518823  0.015280522   0.0595316107  0.1463984739  0.0269666253
   0.0114697218 -0.0210270438 -0.1760934218 -0.1893580598 -0.0652075284
   0.0870389734 -0.0394745073  0.12215437    0.1427846167  0.0078483367
   0.2211849433 -0.1765450855  0.2282192672  0.0602378349  0.0260287183
  -0.1229111391 -0.1154553911 -0.1640790978 -0.2245382294  0.3728141285
   0.0652528211  0.113264862   0.0362975679  0.0426896776  0.1265244276
   0.0441074672 -0.0509108845  0.0062320947 -0.1791172835 -0.0067763961
  -0.1256650622 -0.1227204915 -0.1004533958  0.0112705466  0.1335396983
  -0.2689954907 -0.0865838437 -0.2002759437 -0.2673231893  0.123095348
  -0.0713838628 -0.1033407783 -0.0219768815 -0.0718633962 -0.0489870411
  -0.0215428186  0.0226124476 -0.5177048317  0.0680255125 -0.0057860929
   0.0983366658 -0.1480200698  0.1005546566  0.0955543281  0.0007827811
  -0.2024372728  0.1969313972 -0.1345791172 -0.045637268   0.2434889324
   0.0281753344 -0.0340717582 -0.0314828888  0.2054286117  0.1511805455
   0.2815651491  0.0990570271 -0.0274099684  0.1756529329  0.1034506833
   0.0278647077 -0.0687680317 -0.3106416174  0.0026692708  0.0838383837
  -0.1864229018 -0.2247643943  0.035319571  -0.1564032868 -0.1739165668
  -0.0824459682 -0.2106608663  0.0575148293 -0.3139614528 -0.0119983552
  -0.0399173902 -0.114267004  -0.2889605371  0.0244845485 -0.1177481274]
 [ 0.2260606946 -0.1741820527  0.0246331421 -0.0182484029  0.0612838801
   0.0199935098 -0.0637958124 -0.0359197829 -0.0968803297  0.0406261171
   0.0955536321  0.0085253272 -0.0552310097 -0.0913131842  0.1913009464
  -0.0138900008 -0.0101017845  0.0756770702 -0.263304322  -0.0393919019
  -0.048211988   0.0787486359  0.0458520661  0.1047510613 -0.1474822427
   0.0110946072  0.148180361  -0.0675385037 -0.2701560514  0.0928552431
   0.2725727261  0.0868545293 -0.0365082196 -0.1226563661 -0.3371167414
  -0.2681034989 -0.073610023  -0.053172705  -0.0794312086 -0.0298705984
  -0.0064840617  0.1452032726 -0.1277313548 -0.0438699097  0.1483100014
  -0.0456810828 -0.0820920292 -0.2040093068 -0.0072287971 -0.1652799855
   0.0617804907  0.0930024256  0.2154019703 -0.1021720399 -0.0452574351
   0.2357687119 -0.0295900908 -0.0156245284 -0.0247047111 -0.1312335989
  -0.0700093737  0.0240148885  0.0307797935 -0.1130528761 -0.1867526709
   0.2066483075  0.1463242068 -0.0334558604  0.1487590941  0.0561593952
   0.025534348  -0.1847229486 -0.0801743077  0.012274176   0.0706537361
  -0.0293022634 -0.2614320293  0.0790308583  0.2474008032  0.0032669054
  -0.1529647402  0.1181749672 -0.1464385025  0.1235843904 -0.0766262098
   0.290145401  -0.0432134735  0.0246729752 -0.0841585064 -0.0773954672
  -0.0563274443 -0.3346581465 -0.0791698154 -0.1136926526 -0.3938648715
   0.22081226    0.0621534135  0.2350464287  0.0424125883 -0.1490758678]
 [-0.074271037  -0.1658925953 -0.0091861897  0.0825003627  0.1451850139
   0.0555149337  0.2231974069  0.1005425875 -0.3363593312  0.1774721277
  -0.2525557844  0.1817044147 -0.1143103859 -0.0617420021  0.2368220866
  -0.0825423026 -0.1493570061 -0.13469762    0.0997245751 -0.1591895663
  -0.0389559171  0.0339484512  0.3830982443  0.0829302603  0.2501641388
   0.0115983962  0.0437317573  0.0078859459 -0.263177483  -0.1684368697
  -0.0654857435 -0.0668159747  0.0665972427  0.0160451198 -0.1577158067
   0.0573199998  0.2221393834  0.2266035337  0.1800483246  0.0426467239
  -0.0000703683  0.0615489979 -0.0546806549  0.2108300081  0.0637108016
  -0.1852129085  0.1173088383  0.032375849  -0.2421090229 -0.0977442357
   0.0128527688 -0.0237749173  0.0318946045  0.0454362709  0.0065993472
   0.1049309264 -0.0714622136  0.1152466948 -0.0688909747  0.1970959775
   0.0806303091  0.0446048129  0.3154263483  0.0340277417  0.0477093492
  -0.2378375016 -0.0519741326 -0.1825317697  0.0742663626  0.0050819766
   0.1725749534 -0.029598528  -0.0511012511  0.1615357599  0.0870051177
  -0.1936600071  0.1296281625  0.1065090434 -0.1065802188 -0.1526052747
  -0.082923013   0.2273867202  0.098726431  -0.1288942771 -0.0258870507
   0.0169338493  0.021979023   0.0245835115 -0.2797346302  0.055339445
   0.0070355524 -0.1457781237 -0.0081422471 -0.1452345482 -0.0562298988
   0.094385838   0.1641619344  0.0116004714  0.08077351   -0.0578927041]
 [ 0.0821188485  0.0299342949  0.0312917626  0.1552003624 -0.1610947783
  -0.0032394381 -0.0894643851  0.1780194407  0.1567129057 -0.1352812081
  -0.2320975467 -0.161999908  -0.0660935922 -0.1530551214  0.0852610629
   0.1369421505 -0.1604497868  0.0239150221  0.0955325249 -0.0425487481
  -0.1365991206 -0.1242820398 -0.1627839893  0.1176210776  0.1732212779
   0.1025992327 -0.1412288534 -0.1694604915  0.0790902031 -0.0893171317
   0.0142362976  0.0449482135 -0.0007570325 -0.0156235421  0.0562352604
   0.0967873848  0.010872363   0.1212222197 -0.0480740674  0.23117099
   0.2399136184 -0.1252762955  0.2516842713  0.0749588208 -0.2151913816
  -0.0912595435  0.0760766265 -0.0656413833 -0.1250103669 -0.0093340901
   0.3842451402  0.1779865532  0.1087773     0.3063193848  0.1486705651
  -0.0537282581  0.0636690162 -0.0524320832  0.0729377592 -0.0590043591
   0.0183033584  0.0068997639 -0.2078275359  0.1966280238  0.1168068524
   0.0306611693  0.0307626819 -0.1635668679  0.173270191   0.2354489543
   0.2629863919 -0.0676863921  0.0706759663 -0.2119670493  0.0745053592
   0.0470554581 -0.0633462399  0.0194637225  0.0641738062 -0.1619904934
   0.1028132458  0.0738062278  0.0248254486  0.1401930827  0.0463607533
  -0.1351743132  0.0459650442  0.3436404782  0.0050638093  0.0777667678
  -0.0117553188 -0.1251513932 -0.0591366769  0.1082796441 -0.1308490764
  -0.0691193503 -0.0399983281  0.0361736338  0.0385342877  0.1020408885]
 [ 0.0110247814  0.0591636202  0.1543002803  0.1453403219 -0.0169565848
  -0.0558446497  0.0488275489 -0.1548084268 -0.1483468031 -0.1323740118
   0.0054327209  0.0295262113 -0.1793708956  0.173898603  -0.1099193202
   0.1033306808 -0.2163007241  0.1891402739  0.2107019141 -0.0892352829
  -0.056636626  -0.177077106  -0.2931030294 -0.1993235349 -0.0837236133
  -0.0649006608  0.0320436197 -0.0632690094  0.0470872256  0.0381841547
  -0.0441221174  0.0952620138  0.0508436016  0.0899482013 -0.1488709277
   0.1133512195 -0.0790182165  0.1052958984  0.1342805311  0.0360116799
   0.0725719699  0.2154544157 -0.0537886222 -0.0185124392  0.0366707266
  -0.0152574199 -0.0969476945  0.1078533191  0.2053766427  0.0464178767
   0.0287061886 -0.0531581198  0.0636987363  0.0112953535  0.0198523147
   0.2695135911  0.0249713258  0.0527252506  0.0721052866 -0.100806438
   0.0328249256 -0.0935587472  0.141798246  -0.09208838    0.0577740479
  -0.0998983481 -0.0616257276 -0.0666639563 -0.1344484264 -0.3117671095
  -0.0452788678 -0.0420361724 -0.2162776616 -0.2767302244  0.1307477109
  -0.0487051381  0.0572960502  0.0172656818 -0.1471391269  0.1231575546
  -0.1935737098 -0.0601794673  0.1391607412  0.0173630095 -0.0038660241
  -0.1075066613 -0.2134989098 -0.0999705387 -0.1446475404  0.1323971999
   0.1862394189 -0.0116858792 -0.0194178834 -0.017046835  -0.2551327319
   0.0597801689 -0.0518755978  0.2050137827  0.0264362096 -0.4760941546]
 [-0.0589541639 -0.0579656649  0.1472435686  0.0952602727  0.0726977971
  -0.0464698744 -0.0875268578 -0.0387732651 -0.0908300035  0.0642769737
   0.0578631124  0.1426077423 -0.174559009   0.2467895093  0.0184319647
